{"input_dense": {"weight": [[0.004530549049377441, -0.07514313608407974, 0.0032651014626026154, -0.018076028674840927, 0.062008582055568695, -0.02556462027132511, 0.019280094653367996, 0.16866447031497955, -0.18171215057373047, -0.0709250420331955, 0.219119593501091, -0.03230750188231468, 0.019780119881033897], [-0.09117146581411362, -0.006278228480368853, 0.25338447093963623, -0.006518428213894367, 0.12291158735752106, -0.040401194244623184, -0.21296171844005585, -0.2527225911617279, -0.03736073523759842, 0.0956406369805336, -0.11534718424081802, 0.12374363839626312, -0.02500024437904358], [-0.3037252426147461, 0.12788398563861847, -0.04720308259129524, -0.019357021898031235, -0.1949346661567688, 0.17465227842330933, 0.24318251013755798, -0.11109048128128052, -0.038685109466314316, 0.17980043590068817, 0.08842553198337555, -0.014395572245121002, 0.2609536051750183], [0.027781592682003975, -0.028656452894210815, -0.21873833239078522, -0.025396237149834633, 0.1526964008808136, -0.255461722612381, 0.01516038365662098, -0.2517554461956024, -0.12915976345539093, -0.06761243939399719, -0.10857333242893219, -0.05428125336766243, -0.08971217274665833], [0.05363568291068077, 0.09870588034391403, -0.22927424311637878, 0.09268473088741302, -0.014044035226106644, 0.2620447278022766, 0.0017247971845790744, -0.1229817271232605, 0.4075276255607605, 0.019196948036551476, -0.01754053868353367, 0.10078231990337372, -0.005727202631533146], [-0.036927469074726105, -0.29859259724617004, -0.05676539987325668, 0.030725210905075073, 0.08070388436317444, -0.026863794773817062, -0.04283812269568443, -0.022505423054099083, 0.056744687259197235, -0.06341182440519333, -0.09618405997753143, -0.14539146423339844, 0.18397103250026703], [-0.1678396463394165, -0.09368756413459778, -0.1216256320476532, -0.05409931391477585, -0.06374764442443848, -0.00494428351521492, -0.09784474223852158, 0.025585485622286797, -0.14507035911083221, 0.012021779082715511, -0.2129572629928589, -0.06198703125119209, 0.16020233929157257], [-0.09096423536539078, -0.019052110612392426, 0.042974989861249924, -0.22784028947353363, -0.03342435508966446, 0.01741119660437107, -0.007837537676095963, -0.06295526772737503, -0.1093486100435257, -0.16786625981330872, -0.03686697781085968, 0.1569567173719406, 0.08595010638237], [0.2631648778915405, -0.06703811138868332, -0.026548273861408234, 0.09848888218402863, -0.03253941610455513, -0.14120861887931824, -0.07999413460493088, 0.2457108050584793, -0.06018132343888283, 0.04656675085425377, -0.130353182554245, 0.1697288602590561, 0.2783021330833435], [-0.05159300938248634, 0.12701313197612762, -0.03600620478391647, 0.1205042228102684, -0.022368114441633224, 0.2015026956796646, 0.15976402163505554, 0.07808179408311844, -0.0366164967417717, -0.08094263821840286, -0.06343254446983337, -0.2307363897562027, -0.21229763329029083], [0.09718043357133865, 0.03408410772681236, -0.054263029247522354, 0.025019966065883636, -0.16365401446819305, 0.18356473743915558, -0.11472360789775848, 0.08661962300539017, -0.0377151221036911, 0.0701000839471817, -0.027686815708875656, -0.05521799996495247, 0.01488744281232357], [-0.09267077594995499, -0.08677436411380768, -0.08584972470998764, -0.07687275856733322, 0.00965737272053957, -0.0785955861210823, -0.0359979085624218, -0.06181744113564491, 0.2777654230594635, 0.1673102080821991, 0.13124187290668488, -0.11810550093650818, 0.1440250128507614], [-0.2120116949081421, -0.15072545409202576, 0.1323101967573166, -0.023672113195061684, -0.11070592701435089, 0.08032520115375519, 0.08611513674259186, 0.11390890181064606, 0.03167049214243889, 0.12061800807714462, -0.05955378711223602, -0.20871590077877045, 0.13466310501098633], [-0.11044414341449738, 0.014809469692409039, -0.024462955072522163, 0.001040201517753303, 0.022856807336211205, -0.21890679001808167, 0.2539891302585602, -0.07403852045536041, 0.05976969748735428, 0.15017469227313995, 0.19117377698421478, 0.08324535936117172, 0.01075674407184124], [-0.061390746384859085, 0.4208756387233734, 0.17525498569011688, -0.10232695192098618, 0.1008211076259613, 0.0527905710041523, -0.05908980593085289, 0.06786979734897614, -0.17719577252864838, 0.06796059012413025, -0.11294063180685043, 0.00958169624209404, 0.2547902464866638], [-0.29662173986434937, -0.1073928028345108, 0.055457953363657, 0.08766286075115204, -0.02579258568584919, -0.03028077445924282, -0.043089188635349274, -0.040448471903800964, -0.12366649508476257, -0.027921542525291443, 0.009162066504359245, 0.1631525754928589, -0.14824682474136353], [-0.014793810434639454, -0.046730294823646545, 0.09734909981489182, -0.0505073256790638, 0.04637257009744644, -0.05063096061348915, 0.04928632825613022, 0.03781929984688759, -0.08459577709436417, 0.12789075076580048, 0.16639553010463715, -0.13289956748485565, -0.015280193649232388], [0.020845752209424973, -0.057179614901542664, 0.016171468421816826, 0.06486750394105911, 0.17909054458141327, 0.01616406813263893, -0.11188621819019318, 0.08376144617795944, -0.11746582388877869, 0.20612561702728271, -0.22030983865261078, -0.1833263635635376, -0.09972909837961197], [0.17515310645103455, 0.15164901316165924, -0.06204787641763687, -0.05312349274754524, 0.05190645903348923, -0.13971351087093353, 0.020634975284337997, 0.011581314727663994, -0.12253459542989731, -0.024853229522705078, 0.07414446026086807, 0.08006717264652252, -0.09088849276304245], [0.09689469635486603, -0.13329987227916718, 0.0990484207868576, -0.044898342341184616, 0.1806187927722931, -0.05815526470541954, -0.08372316509485245, -0.1283034235239029, 0.11027409136295319, 0.2937443256378174, -0.027106501162052155, -0.159590944647789, -0.12878677248954773], [-0.005968290846794844, 0.017460167407989502, 0.24080143868923187, 0.07110176980495453, 0.14430387318134308, 0.32597336173057556, 0.16642631590366364, -0.0032500317320227623, 0.06983818858861923, -0.051554467529058456, -0.023815587162971497, -0.0008044545538723469, -0.1388815939426422], [0.044929977506399155, -0.04121452569961548, -0.09700898826122284, -0.045480236411094666, -0.20064280927181244, -0.06203619763255119, 0.15891839563846588, 0.21093867719173431, 0.021882014349102974, 0.17243950068950653, -0.018060466274619102, -0.1678541600704193, 0.030671771615743637], [-0.1542603224515915, 0.006984046194702387, 0.2783055305480957, 0.2799875736236572, 0.03450438380241394, -0.18696406483650208, 0.019986623898148537, 0.059883225709199905, 0.03425858914852142, 0.08800074458122253, -0.14296160638332367, 0.08970630913972855, 0.037655241787433624], [0.0100162448361516, -0.04682682082056999, 0.037028033286333084, 0.07022304087877274, 0.3060542345046997, 0.09729170799255371, 0.0783405676484108, 0.23682038486003876, -0.031194766983389854, 0.15885964035987854, 0.1407804787158966, -0.10127639770507812, -0.07553713023662567], [-0.31279945373535156, 0.0689917802810669, -0.22458337247371674, 0.1500081717967987, -0.0068968553096055984, -0.01682061329483986, -0.23226335644721985, -0.13471439480781555, -0.005614671390503645, 0.06072566285729408, -0.04043751582503319, -0.027034088969230652, -0.11521226167678833], [-0.014452015049755573, -0.03697894886136055, 0.13163866102695465, -0.12775065004825592, 0.11599062383174896, 0.12923282384872437, -0.1269918531179428, -0.14496184885501862, -0.0011247888905927539, 0.03768926486372948, 0.16175776720046997, 0.10151314735412598, 0.005799892358481884], [0.030088119208812714, 0.32096362113952637, -0.07667015492916107, 0.005731824319809675, 0.1660362333059311, -0.04465974494814873, 0.02931925281882286, -0.04039203003048897, 0.06583724170923233, 0.26937323808670044, 0.03806158900260925, -0.06213737279176712, 0.17797279357910156], [0.11825938522815704, 0.2618350088596344, -0.15031641721725464, -0.014742178842425346, -0.1294466257095337, -0.02511758729815483, -0.018611127510666847, -0.10269781202077866, -0.1341865360736847, 0.12386976927518845, -0.08983222395181656, 0.03277008980512619, 0.06330665946006775], [-0.10060727596282959, 0.25157737731933594, 0.03252989798784256, -0.17060768604278564, 0.15795455873012543, -0.020601822063326836, -0.050770461559295654, -0.23219478130340576, -0.11789621412754059, -0.10291320085525513, 0.02527836337685585, -0.049717437475919724, -0.09689003229141235], [0.10047297924757004, -0.09828874468803406, -0.04349673539400101, -0.06940034031867981, 0.038165122270584106, -0.02944767102599144, -0.07236763089895248, 0.09914129227399826, 0.11590106040239334, -0.13343669474124908, 0.17127396166324615, 0.1425931304693222, 0.14580027759075165], [-0.10465069860219955, -0.0019516689935699105, 0.10084888339042664, -0.1312313824892044, -0.31358635425567627, -0.07533690333366394, 0.042284853756427765, 0.04111294820904732, 0.02471555769443512, -0.1188046857714653, 0.045324377715587616, -0.03761565312743187, -0.03141504526138306], [-0.07094287872314453, -0.062010299414396286, -0.16964659094810486, -0.020516369491815567, 0.13539329171180725, -0.12133240699768066, -0.17794464528560638, -0.17498387396335602, -0.03972693905234337, -0.032844625413417816, 0.2819894254207611, -0.034623730927705765, 0.047584157437086105], [-0.05368876829743385, 0.11535909026861191, 0.005497338715940714, 0.07056539505720139, 0.09905901551246643, 0.05305033549666405, -0.1320158988237381, 0.23964981734752655, 0.1975175440311432, -0.09365443885326385, -0.12126877903938293, -0.029313096776604652, -0.12860724329948425], [-0.0632614716887474, -0.015894856303930283, 0.20416474342346191, 0.01865188404917717, -0.12218189984560013, -0.04401104152202606, -0.005145701114088297, 0.03455772250890732, 0.07474213093519211, -0.11115914583206177, -0.16679958999156952, -0.06386740505695343, 0.13090555369853973], [0.00284460443072021, 0.26738104224205017, 0.0003895034024026245, 0.12161774188280106, -0.20080295205116272, -0.06896360218524933, -0.017752081155776978, 0.014046361669898033, 0.06129966303706169, 0.009817690588533878, 0.1306111067533493, 0.15969061851501465, -0.10881836712360382], [-0.1359078586101532, -0.09898180514574051, -0.233403280377388, 0.3090798854827881, 0.13274097442626953, 0.045865584164857864, 0.036157067865133286, -0.0966494232416153, -0.12303559482097626, -0.02081039734184742, 0.10050348192453384, -0.03812646493315697, 0.2289862185716629], [0.1837843805551529, -0.05868563428521156, 0.0779292955994606, 0.02604510448873043, -0.31497302651405334, -0.005916648544371128, -0.13988082110881805, -0.09959886223077774, -0.17211326956748962, 0.10348311811685562, -0.14508387446403503, -0.16017559170722961, -0.14929458498954773], [0.16562576591968536, -0.0032809849362820387, -0.08333063870668411, 0.0038632256910204887, 0.034912437200546265, -0.052372924983501434, -0.15299612283706665, 0.08321811258792877, 0.219609797000885, -0.18949119746685028, 0.04719175398349762, -0.1728064864873886, 0.0796784833073616], [0.05468691512942314, 0.10841444879770279, -0.048469528555870056, -0.12016065418720245, 0.2782713770866394, 0.02622549794614315, 0.15575332939624786, 0.026068229228258133, 0.1398075819015503, -0.051240041851997375, -0.11233575642108917, -0.16595636308193207, -0.001280966796912253], [-0.014841324649751186, -0.020400187000632286, 0.0013616469223052263, 0.037382084876298904, -0.00920799095183611, -0.1748735010623932, 0.07735032588243484, 0.009720003232359886, 0.07408551871776581, 0.14436087012290955, -0.03426039218902588, 0.17535090446472168, -0.09182306379079819], [-0.07919803261756897, 0.15676775574684143, -0.04133203253149986, 0.030882636085152626, -0.08222303539514542, 0.04441951587796211, -0.25978726148605347, 0.02275392785668373, 0.09757819026708603, -0.008037024177610874, -0.05846089869737625, -0.14988704025745392, -0.04660654440522194], [-0.10280847549438477, 0.06577003747224808, -0.08608802407979965, 0.19520919024944305, 0.018270321190357208, -0.017374390736222267, 0.1834847778081894, 0.019152207300066948, 0.14423467218875885, 0.07689199596643448, -0.07156815379858017, 0.12890803813934326, -0.15596933662891388], [-0.06060568988323212, -0.0021505237091332674, -0.10279031842947006, -0.06301381438970566, 0.03658156841993332, 0.17921818792819977, -0.04349929094314575, -0.024276258423924446, -0.011259952560067177, 0.0018027345649898052, -0.21257872879505157, 0.08428176492452621, 0.0963689386844635], [0.3013550937175751, -0.07575808465480804, 0.17606209218502045, 0.05514972284436226, -0.10980026423931122, 0.16278840601444244, 0.007283289451152086, -0.3633163571357727, 0.234140545129776, 0.24835753440856934, 0.026998573914170265, -0.004590680822730064, 0.05361791327595711], [-0.07670926302671432, -0.09410574287176132, -0.0036198231391608715, 0.046654779464006424, 0.18225374817848206, 0.028175102546811104, 0.25340354442596436, -0.08514273166656494, -0.003734396304935217, 0.01760813780128956, -0.16049496829509735, -0.009842930361628532, 0.12787699699401855], [0.04222622513771057, -0.17104516923427582, -0.14845427870750427, -0.35847729444503784, 0.10208868235349655, -0.010600399225950241, 0.04839645326137543, 0.00828581489622593, 0.06489720195531845, 0.06890427321195602, -0.2143276035785675, 0.11607083678245544, -0.2709028422832489], [0.10388036072254181, -0.043881528079509735, -0.036267928779125214, -0.09334123134613037, 0.00652889022603631, 0.14763978123664856, 0.08924651145935059, 0.031783733516931534, -0.06214018538594246, 0.03314332291483879, 0.12933401763439178, 0.08967539668083191, -0.07102108001708984], [-0.18898992240428925, -0.08722672611474991, 0.13324366509914398, -0.11081883311271667, -0.07490494102239609, -0.15808849036693573, -0.008051814511418343, -0.024064144119620323, 0.21664036810398102, 0.06580705940723419, 0.09372952580451965, 0.07181479781866074, -0.060463931411504745], [-0.11756757646799088, 0.05529819428920746, 0.1711915135383606, -0.3299434781074524, 0.13623124361038208, -0.13682545721530914, -0.08371410518884659, 0.1242794468998909, 0.1775251030921936, -0.01184399239718914, -0.09328464418649673, -0.015860185027122498, 0.15796077251434326], [-0.14308752119541168, -0.06796006858348846, -0.0857071727514267, 0.19297459721565247, -0.0060970899648964405, -0.14961010217666626, -0.00026485027046874166, -0.049758750945329666, 0.13041487336158752, -0.23503489792346954, -0.12717533111572266, -0.053933460265398026, 0.0002240859903395176], [-0.1720309555530548, -0.059662774205207825, -0.010915360413491726, -0.07037459313869476, 0.014777656644582748, 0.1175011470913887, -0.17474450170993805, -0.0027654676232486963, 0.04032238945364952, -0.052631672471761703, 0.18646013736724854, -0.1737840175628662, -0.021756336092948914], [-0.023010779172182083, 0.0400107316672802, -0.006204327568411827, 0.04497188329696655, 0.026461295783519745, 0.11244852840900421, -0.25466638803482056, 0.13146907091140747, 0.11617019027471542, 0.014311807230114937, -0.017400890588760376, 0.15081068873405457, 0.052246153354644775], [0.00033271274878643453, 0.0688033178448677, 0.10813625901937485, 0.1431882381439209, 0.012737485580146313, -0.17923188209533691, 0.017914099618792534, 0.1392591893672943, 0.030143821612000465, 0.0915190801024437, 0.2669188380241394, -0.003615130204707384, -0.019018396735191345], [0.07685121148824692, -0.050448253750801086, 0.22777070105075836, 0.1625758707523346, -0.015425280667841434, -0.17834298312664032, -0.07569509744644165, -0.06403195112943649, -0.03739515319466591, -0.020617060363292694, 0.030526209622621536, -0.3037889003753662, 0.021696824580430984], [0.16761191189289093, -0.11491799354553223, 0.005850175861269236, 0.14583909511566162, -0.006196592468768358, 0.1182481050491333, 0.027378544211387634, -0.28434666991233826, -0.1454659104347229, -0.06633688509464264, -0.027186397463083267, -0.06175675243139267, 0.20151112973690033], [-0.0013635829091072083, -0.05510016158223152, -0.25405603647232056, -0.06812214851379395, -0.000837293453514576, -0.1003677248954773, -0.10185688734054565, 0.15898559987545013, -0.18224583566188812, 0.3513152599334717, -0.052991218864917755, 0.04441262036561966, -0.08530005067586899], [-0.16552850604057312, -0.004208479542285204, -0.12069588154554367, 0.016932059079408646, -0.026798691600561142, 0.13362260162830353, -0.033865101635456085, 0.0909692794084549, 0.009890331886708736, 0.05476410314440727, -0.03084704279899597, -0.13255956768989563, -0.150300070643425], [-0.05153115466237068, 0.14780384302139282, 0.06330029666423798, -0.11946055293083191, 0.01915709301829338, 0.010306049138307571, -0.18308600783348083, -0.03979739546775818, 0.027074988931417465, 0.014840957708656788, -0.004650186747312546, -0.08361025154590607, 0.10183117538690567], [-0.0021166668739169836, -0.02464839443564415, -0.0023776430170983076, -0.23009070754051208, -0.0844099298119545, 0.06932234764099121, 0.20037584006786346, -0.070626400411129, -0.0998343899846077, -0.1950266808271408, 0.09012027829885483, -0.1603260487318039, -0.09575824439525604], [-0.028334714472293854, 0.044885795563459396, -0.13793161511421204, -0.22881264984607697, -0.11013618856668472, -0.052699994295835495, 0.10085510462522507, -0.006347924005240202, 0.06264311820268631, 0.130409374833107, 0.01676846668124199, -0.23145921528339386, 0.13330958783626556], [0.09398908168077469, 0.11584579944610596, -0.053021010011434555, 0.048808880150318146, 0.15430507063865662, -0.14315466582775116, 0.23768450319766998, 0.0012876609107479453, 0.04665675386786461, -0.19318458437919617, -0.17126493155956268, -0.014471740461885929, 0.1392701268196106], [-0.0829249694943428, -0.20267455279827118, -0.004626330453902483, -0.1133856549859047, -0.05972963571548462, 0.08250019699335098, 0.07121019065380096, 0.0009201906505040824, 0.028826281428337097, 0.1295665204524994, -0.17349839210510254, 0.28242382407188416, 0.08688230067491531], [-0.05433090776205063, -0.025346381589770317, 0.17076729238033295, 0.033242516219615936, 0.14043113589286804, 0.13136719167232513, 0.06927791237831116, 0.03980547934770584, -0.2210635244846344, 0.08408921211957932, 0.02175924926996231, 0.04057798907160759, -0.03798120841383934], [-0.007778781000524759, 0.12022492289543152, 0.058209966868162155, -0.005981831345707178, -0.10776156932115555, -0.26888155937194824, 0.1563732624053955, -0.15209680795669556, 0.09577108174562454, -0.007165974006056786, -0.18712545931339264, -0.12296295166015625, -0.15725520253181458]], "bias": [0.0, 0.0, 0.0, 0.0, 0.0, 0.0, 0.0, 0.0, 0.0, 0.0, 0.0, 0.0, 0.0, 0.0, 0.0, 0.0, 0.0, 0.0, 0.0, 0.0, 0.0, 0.0, 0.0, 0.0, 0.0, 0.0, 0.0, 0.0, 0.0, 0.0, 0.0, 0.0, 0.0, 0.0, 0.0, 0.0, 0.0, 0.0, 0.0, 0.0, 0.0, 0.0, 0.0, 0.0, 0.0, 0.0, 0.0, 0.0, 0.0, 0.0, 0.0, 0.0, 0.0, 0.0, 0.0, 0.0, 0.0, 0.0, 0.0, 0.0, 0.0, 0.0, 0.0, 0.0]}, "gru": {"weight_ih": [[0.02707505226135254, 0.03244932368397713, -0.158108651638031, -0.06150289997458458, -0.014136657118797302, 0.04921524599194527, 0.04041198641061783, -0.03864354267716408, -0.032670095562934875, 0.07002300769090652, 0.014807192608714104, 0.04557738080620766, 0.010182775557041168, -0.012846767902374268, 0.015101524069905281, 0.10692148655653, 0.05490283668041229, -0.003289788495749235, -0.05519133806228638, 0.011246935464441776, 0.1678367257118225, 0.03418470919132233, -0.10571221262216568, 0.01826278492808342, -0.05731349438428879, -0.0062177772633731365, -0.06457101553678513, -0.09681042283773422, -0.10139117389917374, 0.07977595180273056, -0.00013624923303723335, 0.00445511331781745, -0.09682973474264145, -0.07919285446405411, -0.09206622838973999, 0.06856061518192291, 0.09553728252649307, 0.010298637673258781, 0.09601085633039474, 0.07496465742588043, -0.007506019901484251, 0.021030159667134285, 0.025382885709404945, -0.05659496784210205, 0.0629132017493248, -0.0626504197716713, 0.14684727787971497, 0.01653033122420311, 0.06204358488321304, 0.019415205344557762, -0.14394283294677734, -0.046720925718545914, 0.020862378180027008, 0.033885251730680466, 0.008030325174331665, 0.06976249068975449, 0.02405344881117344, -0.02311175875365734, 0.0011531907366588712, 0.13154521584510803, -0.03814380243420601, 0.056664928793907166, 0.050382550805807114, -0.030366720631718636], [0.04946140572428703, 0.07084512710571289, -0.04073060303926468, -0.08854186534881592, 0.017088867723941803, -0.13733795285224915, -0.07094423472881317, 0.04737531393766403, 0.058800168335437775, -0.10049931704998016, -0.025462249293923378, -0.20313161611557007, -0.03942304104566574, 0.08476509153842926, -0.09977234154939651, 0.02444654144346714, 0.04987669736146927, -0.026903605088591576, -0.052335649728775024, -0.07444890588521957, -0.10896492004394531, 0.11904548853635788, -0.00891208928078413, -0.019125916063785553, -0.018330838531255722, 0.021184349432587624, -0.05665569007396698, 0.06333178281784058, -0.044206418097019196, -0.047912005335092545, -0.04597422480583191, -0.1848074197769165, -0.100301094353199, -0.021070078015327454, -0.07092375308275223, -0.02950470894575119, -0.05144253000617027, 0.021284323185682297, -0.04969273880124092, 0.1682235151529312, 0.05211583524942398, 0.057810790836811066, 0.026919525116682053, 0.11624832451343536, -0.04202550649642944, -0.028162041679024696, 0.0006858049891889095, 0.03241431713104248, -0.05908000469207764, -0.12268644571304321, -0.016817793250083923, -0.005827677436172962, 0.027841201052069664, -0.028087854385375977, -0.04211129620671272, -0.04137566313147545, 0.045599594712257385, 0.057368651032447815, -0.0404350608587265, -0.0845874696969986, -0.14028508961200714, 0.02385486662387848, 0.014325229451060295, -0.10090147703886032], [0.008238176815211773, -0.02571510151028633, 0.07976377010345459, 0.04593561962246895, 0.043578680604696274, -0.03364589437842369, 0.01754153147339821, -0.04269186779856682, 0.05673377960920334, 0.0320819690823555, -0.04164057597517967, -0.034555584192276, 0.14694546163082123, -0.037713877856731415, -0.005391841754317284, 0.11538704484701157, 0.010571558028459549, 0.04940187931060791, 0.033977944403886795, -0.015498613007366657, 0.06193261593580246, -0.054570265114307404, -0.12137682735919952, -0.017258532345294952, 0.0032308311201632023, -0.012654725462198257, 0.0536581389605999, 0.09151697903871536, 0.02342180721461773, 0.03165575489401817, 0.08748747408390045, 0.03916702792048454, 0.11059530824422836, 0.05415789783000946, -0.005317666567862034, 0.05489564687013626, 0.022504564374685287, -0.10295966267585754, -0.03935253992676735, -0.10312333703041077, 0.10975739359855652, -0.006745335180312395, 0.021461648866534233, 0.06618954986333847, -0.14319832623004913, -0.2065514773130417, -0.023978227749466896, -0.032674964517354965, -0.0405333936214447, 0.08354289829730988, -0.14856405556201935, -0.03640773892402649, -0.009998777881264687, -0.02870533987879753, -0.0971730500459671, -0.03088143654167652, -0.03786768764257431, -0.08104001730680466, 0.032383810728788376, 0.010333837009966373, -0.013041260652244091, 0.198664590716362, 0.04087207838892937, -0.05593060329556465], [0.010361745022237301, 0.09806971251964569, 0.09496646374464035, 0.04873299598693848, 0.02384522557258606, -0.02525406703352928, -0.05890441685914993, -0.020792236551642418, -0.03300289064645767, -0.044857852160930634, 0.06279870867729187, -0.014430258423089981, 0.023795105516910553, -0.0016503664664924145, 0.09284955263137817, 0.07070976495742798, 0.12245543301105499, 0.010588831268250942, 0.044777750968933105, 0.023908697068691254, 0.02586670219898224, -0.032290440052747726, 0.0758947879076004, -0.14958496391773224, 0.014424573630094528, 0.06861329078674316, -0.049240730702877045, -0.0231260284781456, -0.0022940172348171473, 0.015509190037846565, -0.03271086513996124, -0.07922317832708359, -0.15843454003334045, -0.09310109913349152, -0.07177405059337616, -0.016288409009575844, -0.030890488997101784, 0.04891052469611168, -0.008486000820994377, 0.009395143948495388, 0.036782748997211456, 0.05330393463373184, -0.08546056598424911, 0.04291090741753578, -0.06978554278612137, 0.09112057834863663, -0.10620525479316711, -0.0841308981180191, 0.060649458318948746, -0.05813867226243019, -0.012259931303560734, 0.05977475270628929, 0.13089603185653687, -0.004356682766228914, 0.019578605890274048, 0.034664470702409744, 0.0309941116720438, 0.07032150775194168, 0.1331937164068222, -0.024286849424242973, -0.005473394878208637, -0.0960361659526825, 0.040552087128162384, 0.0540848970413208], [0.062406621873378754, 0.030603889375925064, -0.0703127458691597, 0.09268361330032349, 0.02821826934814453, 0.0034534381702542305, -0.024807412177324295, 0.09089703857898712, 0.14292481541633606, -0.027763731777668, -0.059022534638643265, 0.02590280771255493, -0.07651879638433456, -0.04000440984964371, 0.06836728006601334, 0.07662750035524368, 0.10281195491552353, -0.1406330019235611, 0.02411092258989811, -0.041705671697854996, -0.13301153481006622, -0.05478973686695099, 0.076746866106987, 0.2556835412979126, 0.09568947553634644, -0.03726596757769585, -0.051355477422475815, 0.13038580119609833, 0.040040742605924606, -0.07591142505407333, -0.08437096327543259, -0.010147467255592346, 0.07338696718215942, 0.01879134215414524, 0.08511357754468918, 0.06334983557462692, 0.02434871345758438, 0.08572942018508911, -0.03448009490966797, 0.05219290778040886, 0.008722870610654354, -0.15052784979343414, -0.03980555012822151, 0.052705273032188416, -0.034460440278053284, -0.03287750482559204, -0.004258804488927126, -0.007872730493545532, 0.06489686667919159, 0.14541925489902496, -0.06478718668222427, 0.07547144591808319, -0.0587068535387516, 0.06685925275087357, 0.034788526594638824, 0.018749641254544258, 0.06257236003875732, 0.02637709118425846, -0.041562288999557495, -0.08799413591623306, -0.06798388063907623, -0.08790912479162216, 0.07716653496026993, -0.06861363351345062], [0.06352965533733368, 0.08054040372371674, 0.06077773869037628, -0.10583247989416122, -0.06381082534790039, -0.06352758407592773, 0.06296814978122711, -0.07791172713041306, -0.0773385688662529, 0.07748031616210938, 0.04813522472977638, -0.11476189643144608, 0.034280240535736084, -0.05355139076709747, -0.00859104748815298, 0.0875895768404007, -0.03776990994811058, -0.12546689808368683, 0.07374228537082672, 0.02591930702328682, -0.06356139481067657, 0.06429895013570786, 0.055861517786979675, -0.0045133731327950954, -0.06201992183923721, 0.00034239422529935837, 0.06831119954586029, 0.03663031384348869, 0.048700787127017975, -0.023954477161169052, 0.05239630490541458, -0.017270393669605255, 0.049723297357559204, 0.040801454335451126, -0.015912747010588646, 0.05547210946679115, 0.10790162533521652, 0.12234169244766235, -0.015552140772342682, 0.02960047870874405, 0.08251389116048813, 0.02725406549870968, 0.0004378128796815872, -0.07099349051713943, 0.12560409307479858, 0.14691093564033508, 0.013461519032716751, 0.030901148915290833, -0.0003128303214907646, -0.033439166843891144, -0.08267159759998322, -0.0880962535738945, 0.0788169801235199, 0.07788321375846863, -0.20578667521476746, -0.0412236750125885, 0.0825968012213707, -0.054498910903930664, 0.06939534097909927, 0.005184978246688843, -0.009766538627445698, 0.012210147455334663, 0.023317601531744003, 0.026756655424833298], [-0.01012018509209156, -0.026359302923083305, 0.02609928511083126, -0.08547265082597733, -0.08632338792085648, -0.045685820281505585, 0.027038216590881348, -0.07718237489461899, -0.015408091247081757, 0.06215314939618111, -0.03250426426529884, -0.03340456262230873, 0.038971908390522, 0.002701548393815756, -0.05061120167374611, 0.02836744114756584, -0.08574868738651276, 0.05476110056042671, 0.01163848489522934, -0.07007064670324326, 0.0020256591960787773, -0.02323058992624283, -0.09181438386440277, 0.03269578516483307, 0.020108405500650406, -0.053048040717840195, -0.043940842151641846, 0.03919493034482002, 0.04660112038254738, -0.0060688829980790615, 0.10862168669700623, 0.09874492138624191, -0.057201236486434937, 0.006471846252679825, 0.04394395649433136, 0.06240488216280937, -0.0477798655629158, 0.06240846961736679, 0.038227055221796036, -0.030186373740434647, 0.16179344058036804, -0.012507857754826546, -0.016523821279406548, -0.009609997272491455, -0.03220459073781967, -0.054276205599308014, 0.05794008448719978, -0.06713679432868958, 0.04298412799835205, 0.04024185240268707, 0.04610461741685867, -0.05187997967004776, -0.032272811979055405, 0.0773802325129509, 0.05866781994700432, 0.127104714512825, -0.10700035840272903, -0.05925397947430611, -0.060718268156051636, -0.0894761011004448, 0.05453174561262131, 0.029660336673259735, -0.07271397858858109, -0.042336586862802505], [0.03438699245452881, 0.014456013217568398, 0.06117573007941246, -0.021907338872551918, 0.08261153846979141, 0.03549913689494133, -0.16687871515750885, 0.023604989051818848, 0.1239001452922821, 0.024404961615800858, 0.016096986830234528, -0.009571378119289875, 0.05177832767367363, 0.08211289346218109, 0.030964452773332596, 0.029869377613067627, -0.05593618005514145, -0.005602444056421518, -0.07045304775238037, -0.23916400969028473, 0.051687777042388916, 0.16323506832122803, 0.0012610177509486675, 0.05612168833613396, 0.05881218984723091, -0.023187853395938873, 0.12928234040737152, -0.02139512449502945, 0.0592879094183445, 0.04182889685034752, 0.05621108040213585, -0.12349601089954376, 0.13444533944129944, -0.005745991598814726, 0.1281335949897766, 0.03386605903506279, 0.10228375345468521, -0.02488607168197632, 0.006311657838523388, 0.01898270659148693, -0.0030756741762161255, 0.12420450150966644, 0.1066415086388588, -0.03267432749271393, 0.04969002306461334, 0.044806256890296936, 0.04341452941298485, 0.09106829762458801, -0.04661976173520088, -0.02144007757306099, -0.1053575724363327, 0.049224454909563065, -0.006926084402948618, -0.050086766481399536, 0.18508262932300568, 0.082318976521492, -0.07823798060417175, 0.10104683041572571, -0.1028820127248764, -0.02430795505642891, 0.022310376167297363, 0.07256387174129486, 0.009149586781859398, 0.012920643202960491], [0.013933339156210423, -0.020763523876667023, 0.14569281041622162, -0.08557923138141632, -0.0034919846802949905, 0.0263222549110651, -0.05031401664018631, -0.05217055231332779, -0.0065686702728271484, -0.09818179160356522, 0.03483154997229576, -0.08419486880302429, -0.02319066971540451, -0.09438719600439072, 0.0038128066807985306, 0.15267598628997803, 0.14780549705028534, 0.04882039129734039, 0.023785173892974854, 0.05184221640229225, -0.06886187195777893, 0.09167345613241196, -0.010740265250205994, 0.06978971511125565, 0.0411304272711277, -0.011476630344986916, -0.01617840863764286, -0.04485255107283592, -0.13284577429294586, 0.020563386380672455, 0.10394266992807388, 0.028974629938602448, 0.06227726489305496, -0.07562673091888428, 0.08369102329015732, -0.06955721974372864, -0.007114374078810215, -0.0387759730219841, -0.1696532666683197, -0.026170022785663605, -0.014644100330770016, 0.03143025189638138, -0.04381822422146797, 0.10285322368144989, 0.000930318608880043, 0.07199004292488098, 0.03516118973493576, 0.12529249489307404, -0.014974103309214115, 0.12555032968521118, -0.008432170376181602, 0.06200648844242096, -0.05425715446472168, -0.04256777465343475, -0.015482591465115547, 0.07488007098436356, 0.13453984260559082, -0.02749570459127426, 0.05807086452841759, 0.09239788353443146, -0.07733163237571716, 0.1297679990530014, 0.0764458030462265, 0.01601358689367771], [0.010507053695619106, 0.044211018830537796, -0.038663215935230255, -0.007150025572627783, 0.11931837350130081, -0.03062436729669571, -0.08682045340538025, 0.07895395904779434, 0.02019825205206871, 0.05300474166870117, 0.034429263323545456, 0.04131993651390076, 0.07415565103292465, -0.023112904280424118, 0.03471336141228676, -0.05853401869535446, 0.02708347886800766, -0.006278505548834801, 0.05579705536365509, 0.11855591088533401, -0.15486577153205872, -0.12469037622213364, -0.13692091405391693, 0.013738865032792091, -0.029451904818415642, -0.018592415377497673, 0.004369761794805527, -0.01651080697774887, 0.01052089873701334, 0.061293166130781174, -0.01197563111782074, -0.0114295594394207, 0.030761051923036575, -0.09462228417396545, 0.11112993210554123, -0.08114762604236603, 0.02739800326526165, 0.08783979713916779, 0.11397136002779007, -0.005958206951618195, -0.09465079754590988, 0.04021335020661354, -0.08044714480638504, 0.10458313673734665, 0.044306740164756775, 0.08414320647716522, -0.01801563985645771, -0.06905569136142731, 0.016225451603531837, 0.012135300785303116, -0.1424504518508911, -0.0263766348361969, 0.0013382004108279943, -0.09510751068592072, 0.026536881923675537, -0.0227492842823267, -0.07139190286397934, 0.16010701656341553, 0.014446010813117027, 0.07302823662757874, -0.08368034660816193, 0.06177655607461929, -0.017199788242578506, 0.019319862127304077], [-0.03127838671207428, 0.07466825097799301, 0.10418274253606796, -0.024615297093987465, 0.00943463109433651, 0.058337192982435226, 0.004430900327861309, -0.016357170417904854, 0.07898668944835663, 0.145624577999115, 0.05910515785217285, 0.09227854013442993, -0.03803006559610367, -0.06142285838723183, -0.06029623746871948, 0.06220536679029465, 0.1378730833530426, 0.13182148337364197, -0.011232877150177956, 0.029251549392938614, -0.035400208085775375, -0.11005647480487823, 0.1588919460773468, -0.05678790807723999, -0.06340209394693375, -0.058724287897348404, 0.03161803260445595, 0.02041231468319893, 0.05300180986523628, -0.03600265830755234, 0.04360881447792053, -0.07327038049697876, -0.04716581106185913, -0.026260176673531532, -0.014548089355230331, 0.002875249832868576, 0.04192139953374863, 0.021222848445177078, 0.11447925120592117, 0.04726638272404671, -0.01484904158860445, 0.004853537771850824, -0.0538577139377594, 0.10862936079502106, -0.05569485202431679, 0.03975081071257591, -0.023694723844528198, 0.007623195648193359, -0.01332033146172762, -0.12442295253276825, 0.06270110607147217, 0.024714529514312744, -0.01706763356924057, 0.07461127638816833, -0.06781186163425446, -0.02025984600186348, -0.05495092272758484, 0.10424242913722992, -0.13497799634933472, 0.034034863114356995, 0.05651511624455452, 0.11356966197490692, -0.10372002422809601, 0.014493383467197418], [-0.06324391812086105, 0.02102028764784336, 0.03192612901329994, -0.07502243667840958, -0.023369750007987022, -0.07158263772726059, -0.08102227747440338, -0.07456709444522858, -0.06044802442193031, 0.032952312380075455, -0.08366378396749496, -0.05765056610107422, -0.06016353517770767, 0.06167130172252655, -0.05822915583848953, -0.20114460587501526, -0.030512327328324318, -0.03076307661831379, 0.1053316742181778, 0.04416462033987045, 0.09188021719455719, -0.0345008410513401, -0.0721713975071907, -0.018372420221567154, 0.07557108998298645, 0.039585523307323456, -0.10438091307878494, 0.029966067522764206, 0.04476180672645569, 0.14736001193523407, -0.061284273862838745, 0.03223079442977905, 0.16316407918930054, -0.005845609121024609, -0.05159799009561539, -0.05548007786273956, 0.09098285436630249, -0.08299806714057922, -0.05648593604564667, -0.07197684794664383, 0.00414888933300972, -0.09087721258401871, -0.01641758158802986, -0.062117576599121094, 0.07612384110689163, 0.22782665491104126, -0.11511379480361938, -0.0013245665468275547, -0.025707662105560303, 0.0157320499420166, 0.023191116750240326, -0.04272380843758583, 0.0068093230947852135, 0.12254787236452103, 0.1021653264760971, -0.02987288497388363, -0.11428870260715485, -0.050276994705200195, 0.029192253947257996, 0.10254093259572983, 0.017141079530119896, -0.03787221759557724, 0.061891183257102966, -0.009832960553467274], [0.07483513653278351, 0.009287643246352673, 0.06638208031654358, -0.023074619472026825, -0.03245110064744949, -0.07691578567028046, -0.027656937018036842, 0.16270454227924347, 0.03246134892106056, -0.018556660041213036, 0.19603511691093445, 0.04449225962162018, 0.046762943267822266, 0.07036581635475159, -0.06645358353853226, -0.03260098770260811, -0.003771287389099598, 0.009832100942730904, -0.07524470239877701, -0.08983905613422394, -0.02259027771651745, 0.13831563293933868, 0.04771951586008072, -0.07953669130802155, 0.09535182267427444, 0.002744552679359913, -0.0861218273639679, -0.03247892111539841, 0.07849360257387161, -0.15783630311489105, -0.010755334049463272, 0.022906292229890823, 0.07344850152730942, -0.12166273593902588, -0.06325153261423111, 0.1567119061946869, -0.08066577464342117, 0.03056623786687851, -0.05569545924663544, -0.10386352986097336, -0.08989542722702026, -0.02275097742676735, -0.034050051122903824, 0.05592324957251549, -0.06615525484085083, -0.012952607125043869, -0.019527992233633995, -0.040295541286468506, 0.03740756958723068, 0.12135852873325348, -0.016810407862067223, -0.07421422004699707, -0.025845156982541084, -0.037659935653209686, -0.10119591653347015, -0.029639828950166702, 0.0042520491406321526, -0.001469666138291359, 0.020526524633169174, -0.012188947759568691, 0.16128259897232056, 0.11598611623048782, 0.02796800434589386, -0.006638842634856701], [-0.17944462597370148, -0.07053423672914505, -0.029078353196382523, 0.04311414808034897, -0.1450529545545578, 0.0027248417027294636, -0.07621939480304718, 0.0672830194234848, -0.08286431431770325, 0.021582840010523796, 0.05304042622447014, 0.1149948388338089, -0.09263768792152405, -0.01541435718536377, 0.0005708113312721252, 0.013701971620321274, -0.06841789931058884, -0.06504187732934952, -0.10477506369352341, 0.007219891995191574, 0.0006523337215185165, 0.0810786634683609, -0.07480465620756149, 0.054936982691287994, 0.011857938021421432, 0.04387720674276352, 0.06937959790229797, 0.10962611436843872, 0.0026570791378617287, 0.10063748061656952, -0.039113275706768036, 0.020973296836018562, 0.046023622155189514, 0.0010895198211073875, -0.067109614610672, -0.014012342318892479, 0.06820636987686157, 0.03107365034520626, 0.003709070850163698, -0.133582204580307, -0.020338676869869232, -0.04025609418749809, -0.04170878976583481, -0.0003636949695646763, -0.0455712229013443, -0.025516647845506668, -0.07848800718784332, 0.014664119109511375, 0.04757242277264595, -0.1515718400478363, -0.03804444521665573, -0.09515538811683655, 0.02326176129281521, 0.10784779489040375, 0.0551275797188282, 0.10240122675895691, -0.07137139141559601, -0.0029092561453580856, 0.06307388842105865, -0.016764061525464058, -0.015070872381329536, 0.044831957668066025, -0.06881202012300491, -0.13206714391708374], [0.003928740508854389, 0.0709783136844635, 0.03131454810500145, 0.027690835297107697, 0.04965624213218689, -0.020409049466252327, 0.07966318726539612, 0.01675032638013363, -0.029328417032957077, -0.020656133070588112, -0.014113129116594791, -0.06251706182956696, 0.009687649086117744, 0.020051581785082817, 0.10759162902832031, 0.08165331184864044, -0.056677691638469696, -0.05988193303346634, 0.011745464988052845, -0.09120233356952667, 0.08765718340873718, -0.033166706562042236, -0.06457480788230896, -0.04611005634069443, 0.007154544349759817, -0.08493933081626892, -0.03913794830441475, 0.03681718558073044, 0.21632520854473114, 0.15192140638828278, 0.058046966791152954, -0.013849686831235886, -0.07637990266084671, 0.021267078816890717, 0.024139098823070526, -0.10839959979057312, -0.12936724722385406, 0.07943233847618103, -0.062252506613731384, -0.03041689284145832, 0.09217491745948792, -0.16250582039356232, -0.05002801865339279, -0.04992121458053589, -0.019472822546958923, -0.0032535253558307886, -0.12506680190563202, 0.12180265039205551, 0.02379009872674942, 0.029805652797222137, 0.029149934649467468, -0.0602884478867054, -0.01929461769759655, -0.04579829424619675, -0.016842978075146675, 0.07769238203763962, -0.05173158645629883, -0.0306147038936615, 0.08512542396783829, -0.07843105494976044, 0.049308959394693375, 0.01950063928961754, -0.13906019926071167, 0.050342049449682236], [-0.044564131647348404, 0.0613851435482502, -0.009684565477073193, 0.0038021416403353214, -0.025941217318177223, 0.035706423223018646, -0.0014985628658905625, 0.008878139778971672, 0.1238919198513031, -0.010573319159448147, -0.009145514108240604, -0.04698064550757408, -0.03924672678112984, -0.04791977256536484, -0.06422151625156403, 0.05724656581878662, -0.08876236528158188, -0.04521913453936577, -0.00719792116433382, -0.0025756428949534893, -0.1023387685418129, 0.07454046607017517, -0.031035861000418663, -0.06402158737182617, -0.01743660680949688, 0.06039263308048248, 0.06282683461904526, 0.03698628023266792, 0.011568672023713589, 0.05011115223169327, 0.012868236750364304, -0.06630566716194153, -0.04763108491897583, -0.10850346088409424, 0.039445579051971436, 0.03553374111652374, 0.01552804559469223, -0.001443588174879551, 0.10235645622015, -0.019169822335243225, -0.05769801139831543, 0.16984440386295319, 0.020193489268422127, -0.16157574951648712, 0.05301918089389801, -0.02771669626235962, 0.027538921684026718, 0.1037805825471878, 0.09289911389350891, 0.09502554684877396, 0.0440070666372776, -0.016237642616033554, -0.009199205785989761, -0.0810135081410408, 0.015557424165308475, -0.0715039074420929, -0.11351636052131653, -0.05753258988261223, 0.13489356637001038, 0.000797017477452755, -0.019541986286640167, -0.026577576994895935, -0.12196571379899979, -0.05123009905219078], [-0.054119765758514404, -0.12427226454019547, 0.017184976488351822, -0.03627057746052742, 0.05347999557852745, -0.15347923338413239, -0.015973137691617012, -0.0883789137005806, 0.03455106541514397, -0.10087691247463226, -0.019498804584145546, -0.05274994298815727, 0.043634165078401566, 0.020032376050949097, 0.050842076539993286, 0.06651414185762405, 0.12430994212627411, 0.042326830327510834, 0.0293885525316, 0.04559434950351715, -0.030612682923674583, -0.015019894577562809, 0.018222659826278687, -0.0029711767565459013, -0.023839037865400314, 0.011378692463040352, 0.04981271177530289, -0.08340618759393692, -0.17677247524261475, 0.040270090103149414, 0.00573220569640398, 0.018871856853365898, 0.007637860253453255, -0.07350888103246689, -0.07156721502542496, -0.037799324840307236, 0.020078808069229126, -0.045829080045223236, 0.07172425091266632, 0.07534127682447433, -0.022833537310361862, 0.1433616429567337, -0.028925416991114616, -0.09914207458496094, 0.022199753671884537, -0.08334430307149887, 0.05294204130768776, -0.07236544787883759, -0.017332402989268303, 0.08649356663227081, -0.06950518488883972, -0.06404893100261688, 0.003146548755466938, -0.03372830152511597, 0.1427748203277588, 0.08008512854576111, 0.10992763936519623, 0.001561671495437622, -0.04283875226974487, -0.03521431237459183, 0.0720290094614029, 0.03884972631931305, 0.022664543241262436, -0.011831117793917656], [0.0017387856496497989, -0.0025881314650177956, -0.018698880448937416, -0.08087977021932602, 0.03427143767476082, 0.00030995308770798147, -0.05785365775227547, 0.1182180866599083, -0.05250607430934906, 0.008574570529162884, 0.030111443251371384, 0.05253281444311142, -0.013560227118432522, -0.06737498939037323, -0.07386211305856705, 0.12960600852966309, 0.08051776885986328, 0.09114057570695877, 0.023595575243234634, -0.012834853492677212, 0.10042640566825867, -0.01994594931602478, -0.048169732093811035, 0.13823437690734863, -0.03708762675523758, 0.06614253669977188, -0.08385378122329712, -0.0031241506803780794, 0.05749478191137314, 0.08770574629306793, 0.04566582292318344, -0.0384528785943985, 0.07004307210445404, -0.04081615060567856, 0.0009298175573348999, 0.007147211581468582, 0.14161556959152222, 0.00553075410425663, 0.0005161655135452747, -0.10290028154850006, -0.01188005693256855, 0.027633771300315857, 0.07620265334844589, -0.03826332464814186, 0.010682502761483192, -0.057858772575855255, 0.15486156940460205, 0.036052871495485306, -0.018471818417310715, -0.06821312010288239, -0.0007735602557659149, 0.001727383118122816, 0.019946496933698654, 0.0032230056822299957, 0.009632433764636517, 0.0021084854379296303, -0.0400843545794487, -0.06907293945550919, -0.002708899788558483, -0.08929581940174103, -0.03018268570303917, 0.05915604159235954, -0.03435434773564339, 0.047294169664382935], [0.04171115159988403, 0.08895015716552734, -0.022536780685186386, -0.06647267937660217, 0.10222185403108597, 0.04917498305439949, 0.058371152728796005, 0.04790649935603142, 0.07960908114910126, 0.03197483718395233, -0.14056247472763062, 0.10621697455644608, -0.032529979944229126, -0.07952350378036499, 0.030515165999531746, -0.03617827966809273, 0.014867248013615608, 0.008728072047233582, -0.06776788085699081, 0.07800134271383286, 0.04692326486110687, -0.09998010098934174, 0.1081923097372055, -0.10316785424947739, 0.06865179538726807, 0.081815205514431, 0.02780354581773281, 0.02024037390947342, 0.14895565807819366, 0.04698777198791504, -0.08506817370653152, -0.0623258575797081, -0.009148619137704372, -0.0931151807308197, 0.04576406627893448, 0.047792479395866394, 0.010236939415335655, -0.10602853447198868, -0.012687748298048973, -0.06603176146745682, -0.09386319667100906, 0.04365526884794235, 0.10554317384958267, -0.0806143581867218, 0.04270586371421814, 0.12784527242183685, 0.0005486179143190384, 0.034630075097084045, 0.023326899856328964, 0.04667326435446739, 0.017118092626333237, 0.08265621960163116, 0.051129549741744995, -0.11363210529088974, 0.02246725931763649, 0.098011814057827, 0.07126467674970627, 0.024643827229738235, 0.008173607289791107, -0.07529647648334503, -0.008665269240736961, -0.07983450591564178, -0.06555686891078949, -0.10080037266016006], [-0.03032500483095646, -0.03827492520213127, -0.04726779833436012, -0.06880142539739609, 0.027147598564624786, 0.04121215641498566, 0.03905131295323372, 0.01042221114039421, 0.04721561819314957, 0.0847657322883606, -0.07128442078828812, 0.06624049693346024, 0.01495713833719492, -0.07091794908046722, -0.097292460501194, 0.07468321919441223, 0.019879581406712532, -0.07525408267974854, -0.01152296643704176, 0.01777741126716137, 0.07302770018577576, 0.06292691081762314, -0.027028841897845268, 0.017932800576090813, -0.09248317033052444, -0.07967492192983627, -0.12685279548168182, 0.0020327800884842873, 0.050103623420000076, 0.0533527135848999, -0.07785233110189438, 0.06696084886789322, 0.006334610283374786, 0.1108517125248909, 0.04940380901098251, 0.06754044443368912, 0.0762566402554512, 0.057217903435230255, 0.08177810907363892, 0.013152847066521645, 0.011938199400901794, -0.07420773804187775, 0.08886447548866272, 0.08388229459524155, -0.0007784049957990646, 0.005787411704659462, -0.043711863458156586, 0.08432867377996445, 0.12003669142723083, 0.07943513244390488, 0.062428154051303864, -0.07896056026220322, -0.018182910978794098, -0.1417115479707718, 0.09402275085449219, -0.019913597032427788, -0.1053287610411644, -0.02724851667881012, 0.13912832736968994, 0.009657349437475204, 0.08106374740600586, -0.003670786041766405, 0.12167302519083023, -0.0020234715193510056], [-0.0745096504688263, 0.017403312027454376, 0.033479467034339905, -0.025045884773135185, 0.026913655921816826, -0.023010939359664917, -0.10823816061019897, -0.16697199642658234, 0.0644487738609314, -0.028402481228113174, -0.10033615678548813, -0.09677225351333618, 0.016908317804336548, 0.09650688618421555, -0.04946846142411232, 0.06031263247132301, -0.057243626564741135, 0.14014463126659393, -0.07614773511886597, 0.12595893442630768, 0.12513643503189087, -0.047264717519283295, -0.011735882610082626, -0.02992933802306652, 0.04292570427060127, 0.04992078244686127, -0.034463636577129364, 0.006522569805383682, -0.061902835965156555, -0.0675927996635437, 0.025787845253944397, -0.005840076133608818, -0.007250482216477394, -0.046588823199272156, 0.02244856022298336, 0.00567461084574461, 0.035897210240364075, 0.07339391112327576, -0.06887193024158478, -0.046872105449438095, 0.04628176987171173, -0.06776278465986252, -0.10358680039644241, -0.16805624961853027, 0.04847128689289093, -0.03981466963887215, -0.05970054864883423, 0.10897645354270935, -0.012172812595963478, 0.12267319858074188, -0.08491706848144531, -0.025298867374658585, 0.06176567077636719, -0.06268886476755142, 0.012412115931510925, -0.011580206453800201, -0.18183265626430511, 0.1272982656955719, -0.10425947606563568, -0.02085075154900551, 0.007768498733639717, -0.0010621324181556702, -0.029282093048095703, -0.040072910487651825], [-0.02761906012892723, 0.004039912950247526, -0.06021927669644356, 0.008483211509883404, 0.0926414281129837, -0.00026646285550668836, -0.03048096038401127, -0.002831336110830307, 0.003988512326031923, 0.013072719797492027, -0.05767861753702164, 0.10294672846794128, 0.10994986444711685, 0.004345428664237261, -0.011568845249712467, -0.04369480907917023, -0.08072465658187866, -0.12330146878957748, 0.0014801928773522377, -0.10580466687679291, -0.030206110328435898, 0.007440153509378433, 0.028317002579569817, -0.028586095198988914, 0.07356294989585876, -0.10231320559978485, -0.06302256882190704, 0.06544926017522812, -0.03019644506275654, -0.15453070402145386, -0.0892939567565918, 0.08692508190870285, -0.05352044478058815, -0.09123148024082184, -0.051924653351306915, -0.10706520825624466, 0.044892728328704834, -0.05186197906732559, 0.08189646154642105, -0.0824488028883934, -0.09627331793308258, 0.05118836462497711, 0.031965821981430054, -0.021855857223272324, 0.1445624679327011, 0.004104211926460266, -0.047899000346660614, 0.11041922867298126, 0.004759014584124088, -0.08059574663639069, -0.018582861870527267, -0.12218514084815979, 0.03895503282546997, -0.026701372116804123, -0.07734210789203644, -0.028572674840688705, -0.010141201317310333, -0.035257816314697266, -0.014039934612810612, 0.08650186657905579, -0.07168763875961304, -0.12286469340324402, 0.02135404571890831, 0.28206107020378113], [-0.027710849419236183, -0.14030571281909943, -0.18244118988513947, 0.006294251419603825, 0.015336190350353718, -0.000627229455858469, 0.013451071456074715, 0.062333427369594574, -0.08338842540979385, -0.02891487628221512, -0.04016075283288956, 0.1524951457977295, 0.09304483234882355, -0.017421752214431763, 0.07415622472763062, 0.03258103132247925, 0.05594354122877121, -0.056939102709293365, 0.004451228305697441, -0.0887075811624527, -0.06503766775131226, -0.035624921321868896, 0.006531694903969765, 0.00620998814702034, 0.06615035980939865, -0.045236051082611084, 0.0332593210041523, -0.16493447124958038, 0.12369668483734131, 0.06670887023210526, 0.014374960213899612, -0.07777567207813263, 0.015981420874595642, 0.005752449855208397, 0.028202008455991745, 0.056533556431531906, 0.0744764506816864, -0.030840475112199783, -0.0853370726108551, 0.0507301390171051, -0.02763783559203148, 0.06799069792032242, -0.04229997470974922, 0.09835057705640793, 0.09416721761226654, -0.0335993692278862, -0.10961512476205826, 0.039016611874103546, -0.02601814456284046, 0.020560527220368385, -0.050354838371276855, -0.18890522420406342, 0.02545103244483471, 0.06424517929553986, -0.0468900166451931, 0.0772840678691864, -0.027907850220799446, 0.07416103780269623, 0.01714526116847992, -0.1057082936167717, -0.04603595286607742, -0.10022646188735962, -0.05817979574203491, 0.049145616590976715], [-0.08021548390388489, 0.056955523788928986, -0.07990055531263351, -0.0223812498152256, 0.08363469690084457, 0.06774244457483292, -0.05323588103055954, 0.06458552181720734, 0.0234798863530159, 0.09901779890060425, 0.049186792224645615, 0.08204658329486847, -0.07574205100536346, 0.028046416118741035, 0.04484022781252861, 0.05141076445579529, 0.07213649898767471, -0.09472823888063431, -0.05791063234210014, 0.12682807445526123, -0.029906924813985825, -0.03154982998967171, -0.17517593502998352, 0.010143479332327843, 0.030096158385276794, -0.059200219810009, 0.0072393035516142845, 0.010913452133536339, -0.011544695124030113, 0.0019822316244244576, 0.15834257006645203, -0.07097434997558594, 0.06590403616428375, 0.1745474487543106, -0.016738269478082657, 0.05323664844036102, -0.0144597003236413, -0.09058550000190735, -0.06018120050430298, -0.0966455414891243, 0.07339402288198471, 0.08163069933652878, 0.031045641750097275, -0.05625052750110626, 0.03394462540745735, 0.09470158070325851, 0.031697098165750504, -0.07600539922714233, 0.010676635429263115, 0.017982568591833115, 0.07993471622467041, -0.007620513439178467, 0.005476327612996101, 0.06384365260601044, -0.04446684196591377, -0.015681102871894836, 0.01055134180933237, 0.039855264127254486, -0.031188398599624634, 0.050589121878147125, 0.07267296314239502, -0.013016737997531891, 0.06645093858242035, -0.08322388678789139], [-0.024262748658657074, -0.028322556987404823, 0.041835520416498184, -0.06552616506814957, 0.06281549483537674, -0.008656264282763004, 0.04818170890212059, -0.05205088108778, -0.08777248859405518, -0.11932142078876495, 0.00033168241498060524, -0.06377410143613815, 0.06130412593483925, -0.11625164747238159, -0.00023661780869588256, 0.017727263271808624, 0.032547906041145325, -0.026988044381141663, -0.026484621688723564, -0.09562401473522186, 0.028904814273118973, -0.023111829534173012, 0.13345597684383392, -0.10862630605697632, 0.06224291771650314, -0.005423864349722862, 0.14884188771247864, -0.05325712263584137, -0.014699133113026619, 0.05462553724646568, -0.025200769305229187, -0.016630692407488823, 0.09693843126296997, 0.05822449550032616, 0.010189695283770561, 0.05821690335869789, 0.05568830668926239, -0.006972727831453085, 0.0375872440636158, -0.008569378405809402, -0.07502182573080063, -0.03610178083181381, -0.06554266810417175, -0.05350550636649132, 0.029811404645442963, -0.05158846825361252, -0.08997216075658798, -0.11585740000009537, -0.09110015630722046, -0.04284344241023064, 0.02021058090031147, -0.011512042954564095, -0.04173009842634201, -0.007074929773807526, 0.0718756765127182, 0.07106727361679077, -0.0024686334654688835, -0.12013539671897888, -0.015075384639203548, -0.0550365149974823, 0.06194845587015152, -0.050619617104530334, 0.11789345741271973, 0.02498014271259308], [0.007723700720816851, 0.08697893470525742, -0.011751114390790462, 0.007062023505568504, -0.013273279182612896, -0.05774125084280968, 0.11479782313108444, -0.03888959810137749, -0.01609387807548046, -0.08537647873163223, 0.014203320257365704, -0.0510433167219162, -0.022484416142106056, 0.07980542629957199, -0.041974637657403946, 0.041061535477638245, -0.0036598853766918182, -0.021661963313817978, 0.053423669189214706, -0.00011680182069540024, -0.06811156868934631, -0.07179129123687744, 0.08578478544950485, 0.009570224210619926, 0.018136875703930855, 0.0718708336353302, 0.05853194743394852, 0.048335861414670944, 0.09557841718196869, -0.09247611463069916, -0.06876710057258606, -0.13082705438137054, 0.0621568039059639, 0.04898134246468544, -0.11281511932611465, 0.11347195506095886, -0.06894588470458984, -0.1364399939775467, 0.03750409185886383, -0.10185423493385315, 0.1314014047384262, -0.05027608573436737, -0.036443114280700684, 0.024592403322458267, -0.10711582750082016, 0.06176111847162247, 0.06823927164077759, 0.10472041368484497, 0.020991820842027664, -0.044070351868867874, -0.13902214169502258, 0.02696102112531662, 0.052175942808389664, -0.023863546550273895, 0.15630917251110077, -0.17149579524993896, -0.03075486235320568, 0.055932965129613876, 0.008141305297613144, -0.002704768441617489, -0.05291495844721794, -0.05861187353730202, 0.08234808593988419, -0.15094931423664093], [-0.0553361177444458, 0.07911118865013123, -0.02379605546593666, 0.006204391364008188, 0.036592748016119, -0.0724470242857933, -0.02662741206586361, 0.05803348124027252, -0.0014171585207805037, 0.0712885707616806, 0.09753327816724777, 0.050206005573272705, -0.0538826659321785, -0.05589846894145012, -0.040902625769376755, 0.06148604676127434, 0.173030823469162, -0.044468048959970474, 0.03533504158258438, 0.013628733344376087, 0.05810904875397682, 0.08801158517599106, -0.04580871760845184, 0.04925297200679779, 0.07376864552497864, -0.05455407500267029, 0.08494634926319122, 0.013958755880594254, 0.019090227782726288, -0.1542356163263321, 0.1552870273590088, -0.08443225920200348, 0.030938461422920227, -0.04320910945534706, -0.03614654019474983, -0.03645863011479378, 0.1087324246764183, -0.006060140207409859, -0.0814846083521843, 0.06855212897062302, -0.004042091313749552, -0.038090966641902924, 0.018897725269198418, -0.055969059467315674, -0.01137285865843296, 0.09664611518383026, -0.031931597739458084, -0.03729713335633278, 0.03874536603689194, 0.06991197913885117, -0.14883624017238617, -0.026546332985162735, -0.0304457638412714, -0.04027847200632095, 0.0766080915927887, 0.09722116589546204, -0.005489393137395382, -0.031217824667692184, 0.040237776935100555, 0.13020716607570648, 0.12689583003520966, -0.11784103512763977, -0.03697937726974487, -0.11099627614021301], [0.060798171907663345, -0.0022279603872448206, 0.027552980929613113, -0.0820571631193161, -0.06457537412643433, 0.01008960697799921, 0.08748218417167664, 0.08056611567735672, 0.05462636053562164, -0.07125247269868851, -0.01996527425944805, -0.04016537219285965, 0.08951213210821152, -2.362515988352243e-05, 0.11224140226840973, -0.0653674378991127, 0.03161187842488289, 0.05555674433708191, 0.18799526989459991, -0.007767632603645325, 0.1054934561252594, -0.06593472510576248, -0.08955645561218262, -0.033154502511024475, -0.02454567328095436, 0.08876609057188034, 0.17611029744148254, 0.05621373653411865, 0.033256031572818756, -0.11381197720766068, 0.066733717918396, 0.1154600977897644, 0.060440778732299805, -0.021679626777768135, 0.022285588085651398, -0.11348806321620941, 0.1065211147069931, 0.08325900882482529, -0.004187931772321463, 0.03638488054275513, 0.026200616732239723, -0.00989597663283348, 0.060927264392375946, 0.055112265050411224, 0.14937621355056763, 0.023899871855974197, 0.05365413799881935, -0.049412135034799576, -0.034310564398765564, 0.021368609741330147, -0.008041191846132278, -0.0439956933259964, -0.016153108328580856, -0.03090938925743103, 0.011898661963641644, 0.0196540504693985, 0.13740640878677368, 0.005879353731870651, -0.03201659396290779, -0.0906665101647377, -0.10045823454856873, -0.0585983470082283, -0.05152482911944389, 0.034131038933992386], [0.09899082779884338, -0.06559465080499649, 0.1725357174873352, -0.014076748862862587, 0.06093014031648636, 0.016392312943935394, 0.03436799719929695, 0.09761392325162888, -0.06540575623512268, -0.08807238936424255, -0.0703715980052948, 0.06065524369478226, -0.037771519273519516, 0.08230055868625641, 0.09488756954669952, -0.01933586783707142, 0.03656497225165367, 0.0396663099527359, -0.022120382636785507, -0.09232410788536072, -0.11605344712734222, 0.0058977254666388035, -0.010523894801735878, 0.021334700286388397, -0.11878974735736847, -0.002390671521425247, 0.037144556641578674, -0.10313683748245239, -0.03201812133193016, 0.05302518978714943, 0.026136523112654686, -0.07327643036842346, -0.0512058362364769, 0.03072398528456688, 0.023893218487501144, 0.026956981047987938, 0.025186238810420036, 0.03853479400277138, -0.03444088250398636, 0.019813092425465584, 0.017753271386027336, -0.09528035670518875, -0.026413166895508766, -0.05582527443766594, -0.09444834291934967, 0.05897410213947296, -0.03633115440607071, -0.13713966310024261, -0.018662763759493828, -0.018292289227247238, 0.04378584399819374, 0.1019228920340538, -0.014294954016804695, 0.0539892315864563, -0.058274947106838226, 0.031114991754293442, -0.016543073579669, -0.023065831512212753, 0.06477930396795273, 0.005345501936972141, 0.09244635701179504, 0.04089329391717911, 0.019280165433883667, -0.11836464703083038], [0.09668141603469849, -0.17873495817184448, 0.04280974343419075, -0.03651236742734909, 0.17640021443367004, -0.13138224184513092, 0.09436270594596863, 0.04278339445590973, -0.06647840142250061, 0.05022063106298447, 0.049729861319065094, 0.0005714662256650627, -0.06820680946111679, -0.12727384269237518, -0.007395223248749971, -0.03266634792089462, -0.016061928123235703, -0.03129928931593895, -0.050058502703905106, -0.0852273628115654, -0.02967492863535881, 0.003478424623608589, 0.012595088221132755, 0.09805759787559509, -0.004208465106785297, -0.037474192678928375, 0.0435023307800293, 0.0005331486463546753, 0.04928494617342949, 0.020458191633224487, 0.11708753556013107, 0.013035442680120468, 0.0011417753994464874, 0.08565019071102142, -0.18113775551319122, 0.05455196276307106, -0.004555650055408478, 0.07249994575977325, 0.0013390234671533108, 0.04416405037045479, -0.02370736002922058, -0.009962894022464752, 0.16922728717327118, -0.009214088320732117, -0.04429572820663452, -0.013739943504333496, 0.02979368343949318, -0.1818307787179947, 0.1151924878358841, -0.08225373178720474, 0.06447544693946838, -0.05031127110123634, 0.01910475827753544, -0.02801785245537758, 0.01445833221077919, -0.1299261599779129, 0.03867467865347862, 0.0908380001783371, -0.08682587742805481, -0.0998242050409317, 0.017783163115382195, -0.1076587364077568, -0.06886942684650421, 0.06319782137870789], [-0.0642162561416626, -0.043094702064991, -0.003843307960778475, 0.019627777859568596, 0.075106680393219, 0.017135808244347572, -0.05133761465549469, -0.007743745110929012, 0.050059475004673004, -0.04758907109498978, -0.0675610601902008, -0.09178806096315384, -0.0453183576464653, -0.01427358016371727, 0.06107524409890175, -0.03424663841724396, -0.041871070861816406, -0.10873813927173615, 0.033972155302762985, 0.02033785916864872, -0.08279349654912949, 0.04222485050559044, 0.08599382638931274, 0.09775581955909729, 0.02774491161108017, -0.05975794047117233, -0.1295345276594162, -0.05969546362757683, 0.13514705002307892, -0.13520090281963348, 0.13028709590435028, 0.007457762956619263, -0.02026669681072235, 0.09034939110279083, -0.04281650111079216, 0.14197729527950287, 0.21039032936096191, -0.0641196146607399, 0.07074315845966339, 0.09301433712244034, 0.03680078312754631, 0.010800879448652267, 0.08780790120363235, -0.0013656560331583023, 0.007064511068165302, 0.02620520628988743, -0.011308500543236732, 0.07701949030160904, 0.02661159634590149, -0.14848192036151886, -0.11593534797430038, 0.03551926091313362, -0.046208176761865616, 0.016372134909033775, -0.05204883590340614, 0.0547579824924469, 0.048747468739748, 0.0009892592206597328, 0.1409560590982437, -0.005059320479631424, 0.004408939275890589, 0.07284319400787354, -0.08395145833492279, 0.01285421010106802], [-0.04682478681206703, -0.07711489498615265, -0.025497794151306152, 0.004868246149271727, -0.11793801188468933, 0.0014244389021769166, 0.016689227893948555, 0.09198687970638275, 0.026179805397987366, -0.035121850669384, -0.056072041392326355, 0.04835788160562515, -0.046472322195768356, 0.16200345754623413, -0.017051436007022858, 0.00446398975327611, 0.057350724935531616, -0.02408302016556263, -0.011963998898863792, -0.04653974622488022, 0.05136825144290924, -0.12475503236055374, -0.08254264295101166, -0.06929411739110947, -0.05860479176044464, -0.1198691800236702, 0.027560506016016006, -0.04322630539536476, 0.09579657763242722, 0.0019637695513665676, -0.04967605322599411, -0.09660178422927856, 0.1553765833377838, -0.05365549772977829, 0.011600999161601067, -0.01502251997590065, -0.01657632179558277, 0.08508577942848206, -0.14239010214805603, 0.0815403014421463, 0.028142370283603668, 0.024454500526189804, 0.06024482846260071, -0.07884128391742706, -0.00043126940727233887, 0.06393012404441833, 0.10048769414424896, -0.040531061589717865, 0.026917310431599617, 0.0004661940038204193, 0.05763750523328781, 0.010690147057175636, 0.013607176020741463, -0.08723501861095428, 0.07050840556621552, -0.07229623943567276, -0.0053207753226161, 0.07191050052642822, 0.045977190136909485, -0.09289723634719849, 0.007880331948399544, -0.013355173170566559, 0.1864512860774994, 0.03234993293881416], [-0.007096803747117519, 0.1089978739619255, 0.02599167451262474, -0.05087314546108246, -0.1181500032544136, -0.02524508349597454, -0.011463137343525887, 0.003045818069949746, 0.06870248913764954, 0.0538070984184742, 0.09028889983892441, 0.06710653007030487, 0.07305794954299927, 0.06288926303386688, 0.0008280438487417996, -0.029410894960165024, 0.07998432219028473, 0.012905601412057877, 0.10009990632534027, -0.03896552324295044, -0.00935243908315897, 0.08202069252729416, -0.1287379413843155, -0.010060228407382965, -0.10938885807991028, -0.04595162719488144, 0.048326317220926285, -0.003991777077317238, 0.13789474964141846, -0.12811197340488434, -0.04620762914419174, 0.04490926116704941, -0.0974130630493164, -0.029701365157961845, -0.006936873309314251, 0.043348610401153564, -0.04116779938340187, 0.018516169860959053, 0.06102287769317627, 0.05630571395158768, -0.12612207233905792, -0.09262719750404358, 0.0470450259745121, 0.0722382664680481, 0.0892578586935997, 0.023068584501743317, 0.039522238075733185, -0.049443282186985016, -0.057327281683683395, -0.05486726015806198, -0.008781345561146736, 0.0656803771853447, 0.04618338868021965, 0.05279397964477539, 0.07372389733791351, 0.142045259475708, 0.0056025246158242226, -0.01750299148261547, 0.0020027384161949158, -0.07178977131843567, -0.008550850674510002, 0.05988030135631561, 0.08798681199550629, 0.027485135942697525], [-0.008701047860085964, -0.10684837400913239, -0.07435929775238037, 0.001110803452320397, 0.013098814524710178, 0.10843685269355774, 0.15639600157737732, -0.04926564544439316, 0.06292970478534698, 0.004000143148005009, 0.011533157899975777, -0.016507189720869064, 0.04511232301592827, -0.018206767737865448, -0.043798770755529404, 0.026569927111268044, -0.1460120677947998, -0.03431043401360512, -0.05532192066311836, -0.04189198836684227, 0.07364095747470856, 0.0983504056930542, -0.03960338234901428, 0.03199233114719391, -0.03345552831888199, 0.07685637474060059, 0.019584471359848976, 0.12622694671154022, -0.11374711245298386, 0.13713568449020386, 0.020626656711101532, -0.018708202987909317, -0.07357890903949738, -0.05348863825201988, -0.12055595219135284, -0.041569143533706665, -0.10825441777706146, -0.0668494924902916, -0.022083129733800888, 0.005938220769166946, -0.016907211393117905, 0.027776755392551422, 0.0845412164926529, 0.14077800512313843, -0.023024730384349823, 0.1174115464091301, -0.006032990291714668, 0.06405944377183914, -0.05765575170516968, -0.022485990077257156, -0.011885792016983032, -0.007107394747436047, -0.08970930427312851, 0.012285805307328701, -0.0231739841401577, -0.023006532341241837, 0.05502784624695778, 0.01742304489016533, 0.03129203990101814, -0.05408068001270294, 0.07170403003692627, -0.10094834864139557, 0.16672267019748688, -0.009037337265908718], [-0.04965438321232796, 0.09801536053419113, -0.009091741405427456, 0.027669114992022514, -0.001695664250291884, 0.027548743411898613, 0.0017901664832606912, -0.08479984849691391, -0.07709343731403351, -0.006989259272813797, 0.057579975575208664, 0.09879524260759354, -0.04182249680161476, 0.07022170722484589, -0.031552694737911224, 0.16955913603305817, -0.035409148782491684, -0.006738286465406418, -0.03019646182656288, -0.05299488455057144, -0.043571095913648605, -0.02947610802948475, 0.060515955090522766, 0.04768611118197441, 0.057513050734996796, 0.091212697327137, 0.09607130289077759, -0.04347400367259979, 0.009915672242641449, -0.052543096244335175, -0.1596030741930008, -0.08514407277107239, -0.0004984848201274872, 0.08864094316959381, 0.0774710476398468, -0.15286746621131897, 0.021329641342163086, 0.09726515412330627, -0.06863419711589813, 0.011411717161536217, -0.008974585682153702, -0.016718879342079163, -0.16217674314975739, 0.016711432486772537, -0.09042815864086151, 0.1342405080795288, 0.0727967619895935, -0.08260820806026459, 0.07927104085683823, -0.10354388505220413, 0.0021556541323661804, -0.013168426230549812, -0.011468826793134212, 0.052512675523757935, 0.0409078449010849, -0.05557337403297424, 0.0043149832636117935, -0.038957372307777405, 0.007165959104895592, -0.02836027555167675, -0.08320675790309906, -0.04272981733083725, -0.08667756617069244, -0.08521392196416855], [0.09544611722230911, 0.035251080989837646, -0.1721406877040863, 0.13108927011489868, -0.046164486557245255, -0.128372922539711, 0.04416423290967941, -0.06036140024662018, -0.009566289372742176, -0.014538433402776718, -0.04969378560781479, 0.052486781030893326, 0.11282907426357269, 0.07762262225151062, -0.12375101447105408, 0.0872785672545433, -0.009697921574115753, -0.032619819045066833, 0.07799405604600906, 0.019931362941861153, -0.017951883375644684, -0.07253409922122955, -0.02658478543162346, -0.034055281430482864, 0.056045498698949814, -0.041508063673973083, 0.008161671459674835, -0.006998354569077492, -0.058174844831228256, -0.060841239988803864, 0.05583590269088745, -0.06462351977825165, 0.015339016914367676, 0.030540525913238525, 0.0015735216438770294, 0.04215353727340698, -0.11050944775342941, 0.12353876978158951, 0.1520548015832901, 0.030068974941968918, 0.05343751609325409, 0.047264464199543, -0.0004352661781013012, 0.07592352479696274, 0.1251269280910492, 0.0037297233939170837, -0.004193125292658806, 0.04991758614778519, 0.04744691401720047, -0.12851275503635406, 0.11172404140233994, 0.013446968980133533, -0.04224252328276634, 0.09673506021499634, 0.09188337624073029, 0.047129832208156586, 0.05010801553726196, -0.07533767819404602, -0.04769672825932503, 0.05439435690641403, 0.08852097392082214, 0.029151611030101776, -0.055955976247787476, -0.06735572963953018], [-0.15540637075901031, -0.010062433779239655, -0.12833133339881897, 0.0941934734582901, 0.11848065257072449, 0.02828047052025795, -0.06927726417779922, 0.04962838441133499, -0.060188520699739456, 0.0017714578425511718, 0.13061116635799408, -0.13875918090343475, 0.02152491733431816, -0.10288449376821518, -0.16323989629745483, -0.02760910615324974, 0.007044166326522827, -0.014400618150830269, 0.11235732585191727, -0.1008095070719719, 0.021066073328256607, -0.01590060628950596, -0.04317735508084297, 0.038590576499700546, -0.07339905202388763, 0.0011306386440992355, -0.026875875890254974, 0.0902232825756073, -0.10071325302124023, -0.013247680850327015, 0.010385073721408844, 0.04602360725402832, -0.04842359200119972, 3.600120544433594e-05, -0.06616448611021042, -0.0069383964873850346, 0.1648990511894226, 0.011947188526391983, -0.012745345011353493, -0.03807562217116356, 0.04082108289003372, -0.0022819777950644493, -0.03707408905029297, -0.08977575600147247, 0.0719912052154541, -0.11156012862920761, 0.013197332620620728, -0.010746138170361519, 0.0032082293182611465, -0.005104982294142246, 0.005582768470048904, 0.015668585896492004, 0.06402190029621124, 0.03756594657897949, 0.055028777569532394, -0.007995424792170525, -0.06969284266233444, 0.08583569526672363, -0.00516220647841692, -0.08239471912384033, 0.026827823370695114, -0.059503763914108276, 0.05865272134542465, -0.04377007111907005], [0.12035637348890305, 0.0642026737332344, 0.019648076966404915, -0.11709554493427277, -0.06586043536663055, 0.053179897367954254, -0.02345365285873413, 0.0021005449816584587, 0.05091201514005661, 0.05519290268421173, 0.0014176035765558481, -0.057393185794353485, 0.11844006180763245, 0.024872932583093643, 0.008193527348339558, -0.054631590843200684, -0.056511662900447845, 0.061776384711265564, 0.02698344551026821, 0.021483365446329117, 0.010992974042892456, -0.016327321529388428, 0.052205294370651245, -0.03392164781689644, 0.03942345455288887, -0.031009642407298088, 0.016534581780433655, -0.08900219202041626, -0.08540454506874084, 0.0755181759595871, -0.20353174209594727, -0.05926928296685219, -0.06784497201442719, 0.023752737790346146, -0.09070797264575958, 0.027418170124292374, 0.04438667744398117, -0.0028410376980900764, -0.0139703918248415, 0.014327134005725384, 0.13466444611549377, 0.09095210582017899, 0.044359736144542694, -0.026906229555606842, -0.011476535350084305, 0.0015247408300638199, -0.025037098675966263, -0.05358029156923294, 0.06589393317699432, 0.022545771673321724, -0.0015695951879024506, -0.06781243532896042, 0.026279792189598083, -0.027512285858392715, -0.047648388892412186, -0.13008135557174683, -0.1714237779378891, 0.14210793375968933, 0.0014859195798635483, 0.025395745411515236, 0.038648881018161774, -0.05300487205386162, -0.006438438314944506, 0.05388341844081879], [-0.05283987522125244, 0.011239446699619293, -0.033804163336753845, -0.12138368934392929, 0.03556038811802864, 0.01865897700190544, 0.042215678840875626, -0.03929029405117035, 0.004894234240055084, 0.1060146614909172, 0.1650034636259079, -0.04822758585214615, 0.11442292481660843, -0.0413682758808136, -0.06481945514678955, -0.03803454712033272, -0.058932725340127945, 0.039300587028265, -0.08312712609767914, 0.10807644575834274, -0.06293437629938126, 0.06344355642795563, 0.025780130177736282, 0.1085028201341629, 0.026088494807481766, 0.04194173589348793, 0.02754952386021614, -0.11301933974027634, 0.10080075263977051, 0.11283113062381744, -0.03708194941282272, 0.04909767583012581, -0.08721401542425156, 0.11640753597021103, -0.02236347645521164, -0.0166338924318552, -0.017017489299178123, 0.05356992036104202, -0.02442929334938526, 0.14997003972530365, 0.07970927655696869, 0.07656038552522659, -0.08573775738477707, 0.13119152188301086, 0.013040635734796524, 0.026835240423679352, 0.02397266775369644, -0.032577283680438995, -0.021436171606183052, -0.07300971448421478, -0.024465827271342278, -0.0027383584529161453, 0.1524161547422409, -0.02275470457971096, 0.006600820459425449, 0.035550929605960846, -0.10088822990655899, 0.021205583587288857, 0.07352907210588455, -0.051161397248506546, 0.11442352086305618, 0.06016182154417038, -0.01057550497353077, -0.013038592413067818], [0.13962095975875854, 0.1609850972890854, -0.08988911658525467, 0.0636250302195549, 0.024921733886003494, -0.0974438339471817, -0.03186095133423805, 0.04869707673788071, -0.043118782341480255, 0.014348908327519894, 0.018854280933737755, 0.04553454369306564, 0.07587775588035583, 0.03214113786816597, -0.21235030889511108, -0.03893851488828659, 0.016898227855563164, 0.17719756066799164, -0.024846576154232025, 0.0524008609354496, -0.06414824724197388, 0.07182417809963226, -0.04801229014992714, 0.030894100666046143, 0.0003669885918498039, -0.0026941150426864624, 0.10811113566160202, 0.015175474807620049, 0.012108813971281052, -0.039496712386608124, -0.019365310668945312, 0.021902352571487427, -0.08627869933843613, 0.048447273671627045, 0.061704955995082855, -0.056182678788900375, 0.10153654217720032, -0.19703735411167145, 0.021657127887010574, 0.10468767583370209, -0.03995716944336891, 0.027144629508256912, 0.058705635368824005, -0.15932072699069977, -0.018029794096946716, -0.007031064480543137, -0.01082925871014595, 0.02715301141142845, 0.04899020865559578, 0.00857515074312687, -0.09187527000904083, 0.009823265485465527, -0.023388754576444626, -0.03115968406200409, 0.03434193879365921, -0.020657960325479507, -0.020611148327589035, 0.04038408398628235, 0.0975726768374443, 0.007936340756714344, -0.07875050604343414, 0.07335168123245239, 0.10611370205879211, -0.05919557437300682], [0.06066036596894264, -0.0677945464849472, 0.01621238887310028, -0.11514979600906372, -0.03446909040212631, -0.07599207013845444, -0.10434429347515106, -0.03193812817335129, -0.09648492187261581, 0.08835167437791824, -0.0715027004480362, -0.06571000814437866, 0.013093497604131699, 0.021658753976225853, -0.05875876173377037, -0.05411158874630928, 0.00335629191249609, -0.017748672515153885, -0.07578831911087036, -0.0033813267946243286, 0.06394752860069275, -0.07235610485076904, -0.021516216918826103, -0.02532309852540493, -0.10023341327905655, 0.01002301461994648, -0.11095494776964188, 0.025767937302589417, -0.10236074030399323, 0.0037941914051771164, 0.02671804279088974, -0.09747961908578873, -0.05623895302414894, -0.022208604961633682, 0.04872790724039078, -0.02250189520418644, -0.07307101786136627, 0.1722681075334549, 0.02114049158990383, -0.06731248646974564, -0.025873877108097076, -0.0426812544465065, 0.07108721882104874, -0.03747826814651489, -0.051227666437625885, 0.024480042979121208, 0.0496605709195137, 0.009748460724949837, 0.06560033559799194, 0.061292167752981186, -0.009086040779948235, -0.05687609687447548, -0.06295040994882584, 0.09955625981092453, 0.09046634286642075, 0.006047308444976807, 0.012125952169299126, 0.0042819976806640625, 0.04135507345199585, 0.1077461689710617, 0.007787629961967468, -0.09063846617937088, 0.04394303262233734, -0.1425432413816452], [0.013846904039382935, -0.023275531828403473, 0.09992998093366623, -0.027481479570269585, 0.09153950959444046, 0.08792703598737717, 0.06829693168401718, -0.04402222856879234, -0.036432553082704544, 0.016709614545106888, -0.0566168874502182, -0.034073781222105026, -0.06755781918764114, 0.1163703128695488, -0.0779050812125206, -0.03219332918524742, -0.030929628759622574, -0.037759922444820404, 0.0037536825984716415, -0.089142344892025, 0.035332683473825455, 0.024425197392702103, 0.07344751060009003, 0.03370785340666771, -2.8025824576616287e-05, 0.11138749867677689, -0.09268949180841446, 0.05972298979759216, 0.05868507921695709, -0.0035863094963133335, 0.18667621910572052, -0.11465222388505936, -0.030431771650910378, -0.003999651409685612, -0.015721000730991364, -0.15704843401908875, -0.05153549462556839, 0.14476288855075836, -0.05458841472864151, 0.03654143586754799, -0.07602119445800781, -0.06405059248209, -0.08584925532341003, 0.08675937354564667, 0.0343521423637867, 0.03712828829884529, -0.04486609250307083, -0.13954029977321625, -0.03233527019619942, -0.03612444922327995, -0.18017050623893738, -0.08518438041210175, 0.11362400650978088, -0.007272929884493351, -0.06856109201908112, -0.006483822129666805, 0.05180039629340172, -0.011631353758275509, 0.040049366652965546, 0.0643886923789978, -0.025257833302021027, -0.09376056492328644, 0.04888855293393135, 0.10617344081401825], [-0.009056729264557362, 0.12176631391048431, -0.03271523490548134, 0.008389050140976906, -0.04481515288352966, 0.028769873082637787, -0.052872247993946075, 0.08112364262342453, -0.1604970097541809, 0.02595912665128708, -0.10932551324367523, 0.04964233562350273, -0.12393628060817719, -0.09874670207500458, 0.08146057277917862, 0.02370091900229454, -0.038830384612083435, -0.055714815855026245, 0.04330730438232422, 0.004952920600771904, 0.07023240625858307, -0.12738515436649323, -0.018514961004257202, -0.04653465747833252, 0.0006392435170710087, -0.04752860590815544, 0.05235057324171066, -0.09509464353322983, -0.09738174825906754, 0.01682092249393463, 0.06122925877571106, 0.12144076079130173, 0.09872093051671982, 0.06496603786945343, -0.11733579635620117, -0.02301042154431343, 0.0008751978166401386, -0.028246719390153885, -0.005304427817463875, 0.3449941575527191, -0.015551291406154633, -0.022429823875427246, -0.053253814578056335, 0.054986417293548584, -0.06957108527421951, -0.025227487087249756, -0.02935924381017685, 0.18640372157096863, 0.028276342898607254, -0.048945263028144836, -0.1593179702758789, -0.06345607340335846, -0.017880607396364212, -0.07777240872383118, -0.042706869542598724, 0.000534936785697937, -0.05257831886410713, -0.058742910623550415, -0.02795751951634884, -0.05907514691352844, -0.0017150603234767914, -0.011105712503194809, 0.0689813494682312, -0.013876602053642273], [-0.13256002962589264, 0.049349796026945114, 0.01822711154818535, 0.09731199592351913, 0.01195984985679388, -0.05224400386214256, -0.017533062025904655, 0.06855252385139465, -0.06021256372332573, 0.08794891089200974, -0.10196411609649658, -0.08115993440151215, 0.18087434768676758, -0.09615402668714523, -0.04071600362658501, 0.005725439637899399, -0.0719725713133812, -0.08298317342996597, 0.007238936610519886, 0.088309645652771, 0.053328342735767365, 0.0009678862988948822, 0.0739641934633255, -0.07761147618293762, 0.03621547669172287, -0.03315860033035278, 0.09891832619905472, -0.06561218202114105, -0.09309211373329163, -0.051315270364284515, 0.08361943066120148, -0.15374629199504852, 0.06062164157629013, 0.009803269058465958, 0.13544437289237976, 0.03445649892091751, -0.11309506744146347, -0.11063198745250702, -0.05563414469361305, 0.0034486576914787292, 0.04234062135219574, -0.07494684308767319, -0.0018949862569570541, 0.002417001873254776, 0.029542002826929092, 0.05357843637466431, 0.0555940605700016, -0.012751039117574692, 0.05024232342839241, 0.040459856390953064, 0.027814233675599098, 0.1670929342508316, -0.0907435268163681, 0.016273586079478264, -0.10874664038419724, -0.07709327340126038, 0.014692774973809719, 0.016715770587325096, 0.14532192051410675, -0.13868963718414307, -0.0010209411848336458, -0.02797638438642025, 0.03287544846534729, 0.0012491587549448013], [-0.06147719547152519, -0.04871881753206253, -0.06674691289663315, 0.04507745802402496, -0.036513522267341614, 0.005946580320596695, -0.042103882879018784, 0.05185464024543762, 0.17085495591163635, -0.04796367138624191, 0.01954907737672329, -0.08071158081293106, 0.10372421145439148, -0.01126041915267706, -0.04717741534113884, -0.010061902925372124, -0.009849529713392258, -0.025591585785150528, -0.08218912780284882, -0.02038738876581192, 0.07896275818347931, -0.1531744748353958, -0.04851822182536125, -0.085866779088974, -0.06789349764585495, 0.017117775976657867, 0.11394825577735901, 0.030072355642914772, -0.014573056250810623, 0.026449745520949364, 0.2363537847995758, -0.014095301739871502, -0.047893717885017395, -0.019453689455986023, -0.06770534068346024, -0.025708863511681557, -0.04241763427853584, 0.012294750660657883, 0.044107966125011444, 0.02987789548933506, -0.1261034905910492, 0.09358744323253632, 0.015500985085964203, 0.04149259254336357, -0.0963955894112587, 0.12187959253787994, -0.22822877764701843, -0.0051308972761034966, -0.11426439881324768, -0.005600602366030216, -0.028640296310186386, -0.0423976331949234, 0.07611221820116043, -0.04715680330991745, 0.01763571798801422, 0.023749249055981636, -0.07602320611476898, 0.07306452095508575, -0.07857029885053635, 0.06594869494438171, -0.004023771733045578, 0.06158597767353058, -0.20469307899475098, 0.026952391490340233], [-0.033127881586551666, 0.08077076822519302, -0.1146911233663559, -0.07577181607484818, -0.040217433124780655, -0.03217436373233795, -0.0600433312356472, 0.0922626182436943, 0.1040935069322586, -0.14350934326648712, -0.0983782485127449, 0.07130670547485352, 0.0279161985963583, -0.1318030208349228, -0.0036456992384046316, 0.02077399380505085, -0.10308918356895447, 0.11167384684085846, 0.05001453682780266, 0.0044346824288368225, -0.022880399599671364, 0.10623527318239212, 0.03907389938831329, 0.013183850795030594, -0.001964408904314041, -0.028036249801516533, 0.012254150584340096, -0.0683189108967781, -0.053089939057826996, -0.04189511761069298, -0.010669958777725697, -0.03810775279998779, 0.037830933928489685, 0.031051678583025932, -0.13460208475589752, 0.0055695027112960815, -0.12166714668273926, -0.03650428727269173, -0.015862971544265747, -0.08315323293209076, 0.00681120902299881, 0.14854881167411804, -0.15347859263420105, 0.04330603405833244, 0.05209653824567795, 0.02655814029276371, -0.07551711797714233, -0.041310958564281464, -0.08517059683799744, 0.008573763072490692, 0.051805686205625534, -0.12685468792915344, -0.05676448345184326, -0.03449731692671776, 0.1297287791967392, -0.0069499546661973, -0.039827898144721985, -0.022080041468143463, 0.013591093942523003, -0.013127045705914497, 0.132899671792984, -0.04601780325174332, -0.007459603250026703, 0.012473873794078827], [-0.0207698792219162, -0.17474478483200073, -0.012749339453876019, -0.014172074384987354, 0.17600993812084198, -0.12468564510345459, -0.13161544501781464, -0.018604271113872528, 0.030006958171725273, -0.005813333671540022, -0.01911955140531063, 0.08362194150686264, 0.0662500262260437, 0.026570331305265427, 0.04751622676849365, 0.11278805136680603, -0.144708514213562, 0.0397336483001709, -0.041653379797935486, -0.036125171929597855, -0.056922547519207, -0.11239603906869888, -0.013787183910608292, 0.04962571710348129, -0.13628734648227692, -0.017798686400055885, 0.06896684318780899, 0.11269844323396683, 0.062373220920562744, -0.17232239246368408, -0.16012398898601532, 0.005754875019192696, 0.044200435280799866, 0.03993125259876251, -0.021851571276783943, 0.00830535963177681, 0.044915225356817245, 0.02578635700047016, 0.07641368359327316, 0.038308918476104736, -0.022784056141972542, -0.016998745501041412, 0.032328374683856964, -0.11770220100879669, -0.052537888288497925, -0.04975222051143646, -0.03445131704211235, -0.02580425702035427, -0.13525456190109253, 0.04917187616229057, 0.042956721037626266, -0.04087315872311592, -0.06853353977203369, 0.08883855491876602, -0.08314403891563416, 0.03693212568759918, 0.018846813589334488, 0.04479493573307991, 0.05287473276257515, -0.07920704036951065, 0.0800996795296669, -0.006056252866983414, 0.09501132369041443, 0.0004513021558523178], [0.07056281715631485, 0.08169347792863846, 0.028329038992524147, -0.043292999267578125, -0.025129884481430054, -0.007185741793364286, -0.0784025564789772, 0.039289310574531555, 0.00810212828218937, 0.06236479431390762, -0.01060183160007, -0.04282918944954872, -0.05888921394944191, 0.10465932637453079, -0.06090359762310982, -0.08933631330728531, -0.06271737813949585, 0.0501706562936306, -0.059816792607307434, -0.0832759216427803, -0.034810107201337814, -0.04147378355264664, -0.10984722524881363, -0.08362743258476257, -0.04339540749788284, 0.02296259254217148, 0.04295559972524643, -0.005838572978973389, 0.024718904867768288, -0.05935078114271164, 0.0892723798751831, -0.007936819456517696, 0.02203455939888954, -0.023960541933774948, 0.06295987218618393, 0.07384809106588364, 0.022750811651349068, -0.008817659690976143, 0.03420589119195938, 0.08733062446117401, -0.06657613813877106, -0.054186321794986725, -0.09036972373723984, -0.007545240223407745, -0.0537683479487896, 0.02692601829767227, -0.0005769859999418259, -0.04394552856683731, -0.08436581492424011, -0.021575840190052986, 0.04338949918746948, 0.06705789268016815, -0.045374464243650436, 0.07883616536855698, 0.12491680681705475, -0.006194097921252251, 0.025495845824480057, -0.09200254082679749, 0.11514568328857422, 0.09339117258787155, -0.05390486866235733, -0.1118142381310463, -0.04865606874227524, 0.02504434809088707], [0.059314049780368805, -0.038966890424489975, 0.04496478661894798, 0.02193468250334263, -0.016822412610054016, 0.041791316121816635, 0.06841626018285751, -0.026862137019634247, 0.0023455123882740736, -0.07676277309656143, -0.04813946783542633, 0.002653061645105481, -0.08335712552070618, -0.19610938429832458, -0.13283127546310425, 0.05414551869034767, 0.1045275330543518, -0.001724796136841178, -0.12303557246923447, -0.1586659699678421, 0.05723978951573372, 0.027042118832468987, -0.14693839848041534, -0.08319145441055298, -0.10652678459882736, 0.11572741717100143, -0.09599258005619049, -0.04805360734462738, 0.041027456521987915, -0.017412051558494568, 0.00965888611972332, -0.08178424835205078, -0.06088609620928764, 0.07821408659219742, 0.07508202642202377, -0.06234622746706009, -0.1316014975309372, -0.1389956772327423, 0.06826387345790863, -0.09586081653833389, 0.002449232153594494, 0.014490809291601181, 0.04625099524855614, -0.11424820870161057, 0.04097072035074234, -0.01719793677330017, 0.03794053569436073, -0.06390585005283356, -0.03898385912179947, -0.03335224464535713, -0.1454485058784485, -0.0768672451376915, 0.021931366994976997, -0.1342741996049881, -0.11185827851295471, -0.014130430296063423, -0.024989943951368332, -0.11725124716758728, -0.06203313171863556, 0.01871197670698166, 0.029809895902872086, -0.11953973770141602, -0.09245165437459946, 0.029811888933181763], [0.127315491437912, -0.11903384327888489, 0.0753549262881279, 0.04321635887026787, 0.016165075823664665, 0.022210117429494858, -0.035963501781225204, -0.06446821987628937, -0.00883609987795353, -0.019495824351906776, 0.026344725862145424, 0.06313060969114304, 0.0051896036602556705, 0.08605288714170456, -0.042202915996313095, -0.04508132487535477, -0.06435827910900116, 0.05843418836593628, 0.05011262372136116, -0.013088256120681763, -0.0372275784611702, -0.07728105038404465, 0.020170191302895546, 0.0028068642131984234, -0.04822487011551857, -0.00041910214349627495, 0.04659625515341759, -0.09831409156322479, 0.020589865744113922, -0.0462515726685524, 0.16071921586990356, -0.09369562566280365, 0.029802503064274788, -0.05198125168681145, 0.10513133555650711, -0.02388179302215576, 0.024334494024515152, -0.0611758828163147, 0.08012058585882187, 0.03757365047931671, -0.06180398911237717, -0.08430293947458267, 0.08617573976516724, 0.07365324348211288, 0.027076419442892075, 0.012379266321659088, -0.048857785761356354, 0.07418124377727509, -0.08298593759536743, 0.000532791018486023, 0.05930030345916748, -0.0696675106883049, 0.04797222092747688, 0.022253165021538734, -0.036374762654304504, 0.01906311884522438, 0.030669495463371277, -0.13105115294456482, 0.05797472596168518, 0.10537239909172058, 0.16333787143230438, 0.032615095376968384, 0.03140949830412865, -0.041791222989559174], [0.04911302775144577, -0.05766351893544197, -0.09999630600214005, 0.15419961512088776, 0.11870003491640091, 0.09210820496082306, 0.001320924493484199, -0.06315941363573074, 0.027033917605876923, -0.1066877618432045, -0.10248740762472153, 0.08167951554059982, -0.0007226330926641822, 0.002951387083157897, -0.10220573097467422, 0.03116411343216896, -0.012336570769548416, -0.0331813246011734, 0.06301812827587128, -0.04152408242225647, -0.053649645298719406, 0.03690111264586449, 0.0006192401051521301, 0.00655098631978035, 0.04318178817629814, 0.010854427702724934, 0.05471557378768921, -0.11043834686279297, -0.07504250109195709, 0.010350991040468216, -0.002843320369720459, -0.038313571363687515, -0.09012364596128464, -0.13627181947231293, -0.05764755606651306, 0.049883708357810974, 0.0028786612674593925, -0.05135472118854523, -0.07316934317350388, 0.13846895098686218, 0.06953049451112747, -0.017620421946048737, 0.14215020835399628, 0.09910362213850021, 0.08534272015094757, 0.12025889754295349, -0.029929835349321365, -0.08120883256196976, 0.13956791162490845, 0.12356564402580261, -0.07209785282611847, -0.022812239825725555, -0.04081574082374573, -0.052825428545475006, -0.06324891746044159, -0.02908308058977127, -0.07860250025987625, 0.030902177095413208, 0.0531974658370018, -0.05603991448879242, 0.012418031692504883, 0.020781993865966797, -0.09775093197822571, -0.00013545621186494827], [0.06853973120450974, 0.09501039236783981, 0.06455531716346741, -0.05430205538868904, -0.13448533415794373, -0.13167016208171844, 0.0016739016864448786, -0.013807027600705624, 0.08545359969139099, 0.0293898843228817, -0.012100139632821083, 0.04380016401410103, -0.07344172149896622, -0.02944914810359478, 0.08125784248113632, 0.023419102653861046, -0.012966882437467575, 0.008561812341213226, -0.12457030266523361, -0.020258396863937378, 0.06541034579277039, -0.029138509184122086, -0.11288972198963165, 0.021696701645851135, 0.06511206924915314, -0.014762269333004951, 0.04965389892458916, -0.028536060824990273, -0.14993485808372498, -0.03435583412647247, 0.03784891963005066, 0.039313897490501404, 0.06167355924844742, 0.04743900150060654, 0.016573801636695862, 0.054717712104320526, -0.06568131595849991, -0.1871853619813919, -0.11236727982759476, 0.017056811600923538, -0.07496640086174011, 0.08811570703983307, 0.03377162665128708, 0.030580690130591393, -0.06792431324720383, -0.0332605205476284, 0.03466503694653511, 0.015204142779111862, 0.09160736203193665, -0.030380018055438995, -0.002301618456840515, 0.022365696728229523, 0.10895389318466187, 0.12599880993366241, -0.04634621739387512, -0.022891320288181305, -0.04686521738767624, 0.0015305392444133759, 0.07988204061985016, -0.01222230028361082, -0.02320270985364914, 0.06915155053138733, 0.0325930193066597, 0.040896642953157425], [-0.02913609892129898, 0.05343980714678764, -0.04749315232038498, -0.009887666441500187, -0.006773813161998987, -0.11093407869338989, 0.06661466509103775, -0.03705684840679169, 0.00904355850070715, -0.06788726896047592, -0.10760650783777237, -0.07495677471160889, -0.0075456369668245316, 0.007362290285527706, 0.06018999591469765, 0.09568721055984497, 0.04584329202771187, -0.05487361550331116, -0.08194795250892639, -0.05163335055112839, -0.04076770693063736, 0.015492882579565048, -0.08160773664712906, 0.013418680056929588, -0.07558464258909225, 0.00537064578384161, 0.03886043280363083, -0.09148238599300385, 0.06033023074269295, 0.0650673657655716, -0.14640645682811737, -0.03470293805003166, -0.03188411518931389, -0.06940729171037674, 0.0030289022251963615, -0.10649020969867706, 0.01876159757375717, 0.015243729576468468, -0.0037002908065915108, -0.06581239402294159, -0.027289757505059242, 0.09852040559053421, -0.003190048970282078, 0.06292478740215302, -0.026805521920323372, -4.106201231479645e-06, -0.10648965835571289, 0.168701633810997, -0.057754240930080414, 0.026616260409355164, 0.1229313313961029, -0.059239357709884644, -0.0778595507144928, 0.10717257857322693, -0.08136938512325287, -0.09270843118429184, 0.0033523559104651213, 0.054428186267614365, 0.014556597918272018, 0.09166885912418365, 0.029412660747766495, 0.041826069355010986, -0.007560946512967348, 0.10014713555574417], [-0.07185344398021698, -0.0879317969083786, 0.035841383039951324, 0.02197035402059555, -0.09712865948677063, 0.006751160603016615, 0.17618030309677124, 0.11901033669710159, 0.08750942349433899, -0.007570595946162939, 0.010258788242936134, 0.03891407698392868, -0.12264302372932434, -0.051613762974739075, 0.04016520082950592, 0.03580247983336449, 0.01225268468260765, 0.03300821781158447, -0.10100310295820236, -0.020377838984131813, -0.01089988648891449, -0.050572797656059265, -0.13131611049175262, 0.044915176928043365, -0.0013512307778000832, 0.04351687431335449, 0.08333435654640198, 0.03965170308947563, 0.0725676417350769, -0.020922955125570297, 0.029633767902851105, -0.08782303333282471, -0.10740949958562851, -0.033189382404088974, -0.060497015714645386, 0.05999345704913139, 0.08823827654123306, -0.07821425795555115, 0.03977310657501221, 0.008981290273368359, 0.05470023304224014, -0.06226426362991333, -0.059337154030799866, -0.0641995221376419, 0.030601967126131058, -0.06642986088991165, -0.06795180588960648, -0.0009838126134127378, -0.031719014048576355, -0.0031007379293441772, -0.04959326237440109, -0.00527998199686408, -0.03469420596957207, 0.08426736295223236, -0.08933776617050171, -0.05412733182311058, -0.09998814761638641, -0.0076876129023730755, -0.19258379936218262, 0.10501033067703247, -0.0676146149635315, -0.05470496788620949, -0.024728545919060707, 0.052325036376714706], [-0.027084531262516975, -0.036398619413375854, 0.07938983291387558, -0.008341099135577679, -0.0030240986961871386, -0.031147057190537453, 0.05988757684826851, -0.029715251177549362, -0.07968936860561371, -0.01537253987044096, -0.04807113856077194, -0.015920070931315422, 0.12034428864717484, -0.06189464032649994, 0.04160501807928085, -0.10412606596946716, 0.21328535676002502, -0.06147243082523346, -0.03788304328918457, -0.06827687472105026, 0.039941076189279556, 0.08959440141916275, -0.0007522180676460266, -0.03661613166332245, 0.0003809593617916107, -0.10155247896909714, -0.07652442157268524, -0.009967397898435593, 0.07148758322000504, 0.0691426694393158, 0.06796287000179291, 0.10981862246990204, 0.0038135573267936707, 0.0033817002549767494, -0.0003883363679051399, 0.029470408335328102, -0.07609806954860687, -0.07672672718763351, -0.0031745992600917816, -0.0494246780872345, 0.0241352841258049, 0.14179053902626038, -0.0721932202577591, -0.09758393466472626, -0.03951382264494896, 0.11350087076425552, 0.000469474121928215, 0.01799827441573143, 0.1161557212471962, -0.09446670114994049, 0.012858078815042973, -0.08524664491415024, -0.1489594280719757, -0.0005312971770763397, -0.04932594299316406, 0.035887472331523895, 0.03826024383306503, 0.01951117441058159, 0.05092782527208328, -0.014196973294019699, 0.01925055682659149, 0.025414710864424706, 0.1470089703798294, 0.059414736926555634], [-0.029122840613126755, -0.03319614753127098, -0.15467602014541626, 0.09408126026391983, -0.06016894802451134, -0.02657519094645977, 0.03625604510307312, 0.024983113631606102, 0.05032113194465637, 0.05568111687898636, -0.02376156486570835, -0.03133969008922577, 0.011235722340643406, 0.0826476439833641, -0.04997072368860245, -0.05826560780405998, 0.09748025983572006, 0.017130229622125626, 0.03881559520959854, -0.024759996682405472, -0.020712316036224365, 0.10542573034763336, 0.09100852161645889, 0.030080311000347137, 0.04568453133106232, 0.14802873134613037, -0.0171597208827734, 0.03544633090496063, -0.08476614952087402, 0.04951409623026848, 0.05645449087023735, 0.004508661106228828, 0.0848761722445488, 0.05168811231851578, 0.06899245828390121, -0.027913445606827736, 0.11048728972673416, -0.04757777601480484, 0.018176745623350143, 0.060857996344566345, 0.013365411199629307, -0.14492318034172058, -0.06178221106529236, -0.06434835493564606, 0.03726152330636978, -0.0653805285692215, -0.229246586561203, -0.09641356766223907, -0.00133236451074481, -0.14641958475112915, 0.03656560182571411, -0.058597225695848465, -0.06896581500768661, 0.0653534084558487, -0.04363467916846275, -0.09981472790241241, -0.10673167556524277, -0.10853157937526703, -0.015232296660542488, -0.03139926493167877, -0.10765046626329422, 0.08828046917915344, 0.045473020523786545, -0.01564740389585495], [-0.02642604149878025, 0.013154130429029465, 0.11593543738126755, -0.012679255567491055, 0.10507576912641525, -0.020690159872174263, 0.007178604137152433, 0.09128400683403015, -0.10322345048189163, 0.02196783944964409, -0.009639841504395008, -0.1377444714307785, -0.040569454431533813, 0.018553858622908592, -0.17555443942546844, -0.06659824401140213, -0.04150138050317764, -0.03512612357735634, -0.018798094242811203, -0.07834173738956451, 0.02218034863471985, 0.07857206463813782, -0.03678698092699051, -0.010187465697526932, 0.04031903296709061, -0.026920288801193237, 0.07266941666603088, -0.06696955859661102, 0.012959156185388565, 0.14838792383670807, -0.07361579686403275, -0.07256823033094406, -0.1038794219493866, -0.04034537076950073, 0.049265578389167786, -0.009275817312300205, 0.08105622231960297, 0.07989431172609329, -0.06454156339168549, -0.031021127477288246, 0.05671633780002594, -0.046599846333265305, 0.08537013828754425, -0.09021072089672089, 0.0524165965616703, 0.0303198229521513, 0.07085664570331573, 0.024592583999037743, -0.049234963953495026, 0.021388940513134003, 0.11176322400569916, 0.03818779066205025, -0.003107355907559395, -0.05132897198200226, 0.06490620225667953, 0.001328393816947937, 0.023835137486457825, 0.015849221497774124, -0.02836989425122738, 0.0045814309269189835, 0.10156136006116867, 0.04415961354970932, -0.00834837555885315, 0.09367850422859192], [-0.0035751585382968187, 0.013962268829345703, -0.049101024866104126, -0.048443328589200974, -0.05046730861067772, -0.052603479474782944, -0.044297847896814346, 0.09278005361557007, 0.02852904237806797, -0.022729074582457542, 0.007468520663678646, 0.06281068176031113, 0.0017868215218186378, 0.08734314143657684, 0.16672012209892273, 0.024782558903098106, 0.015465699136257172, 0.05099010095000267, 0.0203620046377182, 0.0834917202591896, -0.043128617107868195, -0.0037334635853767395, 0.10512754321098328, 0.014464065432548523, 0.07045695185661316, -0.07453922927379608, 0.02075079455971718, 0.07006825506687164, -0.04122631624341011, 0.10759606957435608, 0.1663500964641571, 0.09824766218662262, -0.15312112867832184, -0.00786914024502039, 0.01761474646627903, -0.023476455360651016, 0.07770534604787827, 0.011301589198410511, -0.005885012447834015, -0.005714373663067818, -0.03652627393603325, 0.022624820470809937, -0.0010402780026197433, -0.05510099604725838, -0.07819826900959015, 0.0758293941617012, 0.20782218873500824, 0.05762127414345741, -0.10299143195152283, -0.017696833238005638, -0.01901976391673088, -0.044543713331222534, 0.07815104722976685, -0.0032664090394973755, -0.11608783155679703, 0.014720486477017403, -0.13882292807102203, -0.0002129431813955307, 0.16421358287334442, -0.0748712569475174, 0.009846645407378674, 0.02841668762266636, -0.06364789605140686, -0.03752421960234642], [-0.14342917501926422, -0.003504239721223712, -0.04064382240176201, -0.0479104183614254, 0.05473239719867706, -0.0035147741436958313, 0.018254583701491356, -0.053088102489709854, 0.09938237071037292, 0.03134923800826073, 0.02442360855638981, -0.06489934027194977, -0.010840370319783688, -0.00030383048579096794, -0.08329037576913834, 0.09206096827983856, -0.03339908644556999, 0.0036392509937286377, 0.010065398178994656, -0.023961041122674942, -0.01724861189723015, 